{
  "weights": [
    0.018361395224928856,
    0.1317836493253708,
    -0.08949689567089081,
    -0.0306381955742836,
    0.02642330899834633,
    0.06868647783994675,
    0.13902166485786438,
    0.12737195193767548,
    -0.1377856284379959,
    -0.04564443603157997,
    -0.09248417615890503,
    0.031869497150182724,
    0.07162541896104813,
    -0.21792767941951752,
    0.020666128024458885,
    0.05221026390790939,
    0.006055019795894623,
    0.1761317104101181,
    0.3904323875904083,
    0.5905723571777344,
    0.012230856344103813,
    0.5887496471405029,
    0.68966144323349,
    0.43296530842781067,
    -0.6379904747009277,
    0.34421050548553467,
    0.1404256373643875,
    0.0033243075013160706,
    -0.06616140902042389,
    -0.0498523972928524,
    -0.0200347863137722,
    -0.008995488286018372,
    0.017658695578575134,
    0.007896971888840199,
    -0.05004817992448807,
    -0.07165317237377167,
    0.06981469690799713,
    0.2946087121963501,
    0.0200823824852705,
    -0.15120624005794525,
    -0.001539905439130962,
    -0.042244017124176025,
    -0.06166154891252518,
    -0.07927929610013962,
    -0.14329800009727478,
    -0.038291312754154205,
    0.08008798956871033,
    -0.1023218184709549,
    -0.053513139486312866,
    0.007147321943193674,
    -0.03446071222424507,
    0.061652474105358124
  ],
  "bias": 0.804779589176178,
  "scaler_mean": [
    298.2609362876849,
    109.79578880587098,
    112633.98766090971,
    1389.019705679368,
    1822.0218661454114,
    76792.60619076401,
    106.90302468914575,
    0.7125101271845784,
    0.14307514906787036,
    0.00956777819215288,
    0.1348469455553984,
    0.05108816330379839,
    0.41298337212741604,
    0.5359284645687855,
    0.031086705846546898,
    0.0035493370712825194,
    0.9653639570821706,
    0.00856041803303284,
    0.03918631018976951,
    0.16287084785432285,
    3.8579750774809995e-05,
    0.11104109600785313,
    0.1303802677434704,
    0.04610280217589794,
    0.4721668531354621,
    0.025550511610361665,
    0.004102313499054796,
    0.00385583175799351,
    0.08513050672359324,
    0.9110136615184132,
    0.04839401070802416,
    0.12900211331301467,
    0.7504811752249414,
    0.07212270075401979,
    0.8520145059862914,
    0.12366953442814092,
    0.024315959585567745,
    0.10364235713703956,
    0.011546062079105636,
    0.864882996189178,
    0.019928584594676852,
    0.009627791137802584,
    0.07890845025141138,
    0.02329145287054779,
    0.13359310365521707,
    0.007947428659610858,
    0.07188907892988344,
    0.6747426944955269,
    0.23612950793671206,
    0.08431818863783473,
    0.6075774917160702,
    0.07197481170938302
  ],
  "scaler_scale": [
    760.7407166881134,
    116.78607210090789,
    202082.73731218677,
    506.41880173380804,
    681.5916843601506,
    12951.231839409513,
    29.26120931095671,
    0.45259191977320395,
    0.35014946920861817,
    0.09734595940571258,
    0.341560019366696,
    0.22017757123295464,
    0.49236988786245267,
    0.498707474812369,
    0.17355207450836524,
    0.05947049081382245,
    0.18285619335648354,
    0.09212566024801433,
    0.19403799443274167,
    0.36924779589529966,
    0.006211140183383414,
    0.3141830215101189,
    0.33672132918277,
    0.20970773425753272,
    0.49922471486858205,
    0.15778999640918445,
    0.06391779504183688,
    0.06197551386997576,
    0.2790758025135419,
    0.28472402435556293,
    0.21459736819359132,
    0.335202279338597,
    0.43273453855444927,
    0.25869096773943595,
    0.3550856059814693,
    0.32920416261412583,
    0.15402822369618105,
    0.30479602842576203,
    0.10683047565920069,
    0.34184850312968806,
    0.13975491444213928,
    0.09764782012727899,
    0.26959582105502283,
    0.15082758730990442,
    0.34021461801484004,
    0.08879339523473158,
    0.2583041603623458,
    0.46847090701605254,
    0.4247026764905989,
    0.27786441244367593,
    0.48828995819705207,
    0.25844619979558975
  ],
  "feature_names": [
    "loan_amount_000s",
    "applicant_income_000s",
    "sequence_number",
    "number_of_owner_occupied_units",
    "number_of_1_to_4_family_units",
    "hud_median_family_income",
    "tract_to_msamd_income",
    "loan_type_name_Conventional",
    "loan_type_name_FHA-insured",
    "loan_type_name_FSA/RHS-guaranteed",
    "loan_type_name_VA-guaranteed",
    "loan_purpose_name_Home improvement",
    "loan_purpose_name_Home purchase",
    "loan_purpose_name_Refinancing",
    "property_type_name_Manufactured housing",
    "property_type_name_Multifamily dwelling",
    "property_type_name_One-to-four family dwelling (other than manufactured housing)",
    "purchaser_type_name_Affiliate institution",
    "purchaser_type_name_Commercial bank, savings bank or savings association",
    "purchaser_type_name_Fannie Mae (FNMA)",
    "purchaser_type_name_Farmer Mac (FAMC)",
    "purchaser_type_name_Freddie Mac (FHLMC)",
    "purchaser_type_name_Ginnie Mae (GNMA)",
    "purchaser_type_name_Life insurance company, credit union, mortgage bank, or finance company",
    "purchaser_type_name_Loan was not originated or was not sold in calendar year covered by register",
    "purchaser_type_name_Other type of purchaser",
    "purchaser_type_name_Private securitization",
    "owner_occupancy_name_Not applicable",
    "owner_occupancy_name_Not owner-occupied as a principal dwelling",
    "owner_occupancy_name_Owner-occupied as a principal dwelling",
    "applicant_ethnicity_name_Hispanic or Latino",
    "applicant_ethnicity_name_Information not provided by applicant in mail, Internet, or telephone application",
    "applicant_ethnicity_name_Not Hispanic or Latino",
    "applicant_ethnicity_name_Not applicable",
    "preapproval_name_Not applicable",
    "preapproval_name_Preapproval was not requested",
    "preapproval_name_Preapproval was requested",
    "lien_status_name_Not applicable",
    "lien_status_name_Not secured by a lien",
    "lien_status_name_Secured by a first lien",
    "lien_status_name_Secured by a subordinate lien",
    "applicant_race_name_1_American Indian or Alaska Native",
    "applicant_race_name_1_Asian",
    "applicant_race_name_1_Black or African American",
    "applicant_race_name_1_Information not provided by applicant in mail, Internet, or telephone application",
    "applicant_race_name_1_Native Hawaiian or Other Pacific Islander",
    "applicant_race_name_1_Not applicable",
    "applicant_race_name_1_White",
    "applicant_sex_name_Female",
    "applicant_sex_name_Information not provided by applicant in mail, Internet, or telephone application",
    "applicant_sex_name_Male",
    "applicant_sex_name_Not applicable"
  ],
  "background_data": [
    [
      0.058809871393615855,
      -0.35788333363723146,
      -0.4661060559338998,
      -1.1275641894107962,
      -0.93607636475841,
      -1.188505184806097,
      -0.5393837887846227,
      0.6352077009229069,
      -0.40861164059805144,
      -0.0982863413187688,
      -0.39479721837885196,
      -0.23203164163231477,
      1.1922269057131527,
      -1.0746349145266378,
      -0.1791203356952585,
      -0.059682323497111,
      0.18941684326931937,
      -0.09292110374012057,
      -0.2019517378765345,
      -0.4410882059821555,
      -0.006211379816868716,
      -0.3534280607339465,
      -0.3872052538516231,
      -0.21984311803817946,
      1.0573057205380683,
      -0.16192732233863244,
      -0.06418108597722527,
      -0.062215406008299036,
      -0.3050443856359146,
      0.31253540576000277,
      -0.2255107372256646,
      -0.38484855642257165,
      0.5766094511627771,
      -0.27879868162488264,
      -2.399462246945473,
      2.661966539587907,
      -0.15786690907720072,
      -0.34003841084262465,
      -0.10807835505608591,
      0.3952540455020284,
      -0.1425966641260948,
      -0.09859709233911464,
      -0.292691666890885,
      -0.15442435489398237,
      -0.3926730263230188,
      -0.08950472767260755,
      -0.27831173461952124,
      0.6942956342288463,
      -0.5559878027798089,
      -0.3034508373933143,
      0.8036669640573799,
      -0.27849050118093954
    ],
    [
      0.09693061261836793,
      0.18156455485383327,
      -0.20081372709346432,
      -0.6773439384655221,
      -0.5663535442158342,
      -0.34688640018730776,
      0.2363871886555434,
      0.6352077009229069,
      -0.40861164059805144,
      -0.0982863413187688,
      -0.39479721837885196,
      -0.23203164163231477,
      -0.8387665093012068,
      0.9305485858334372,
      -0.1791203356952585,
      -0.059682323497111,
      0.18941684326931937,
      -0.09292110374012057,
      -0.2019517378765345,
      -0.4410882059821555,
      -0.006211379816868716,
      -0.3534280607339465,
      -0.3872052538516231,
      -0.21984311803817946,
      1.0573057205380683,
      -0.16192732233863244,
      -0.06418108597722527,
      -0.062215406008299036,
      -0.3050443856359146,
      0.31253540576000277,
      -0.2255107372256646,
      -0.38484855642257165,
      0.5766094511627771,
      -0.27879868162488264,
      0.41676004749522705,
      -0.3756621223927209,
      -0.15786690907720072,
      -0.34003841084262465,
      -0.10807835505608591,
      0.3952540455020284,
      -0.1425966641260948,
      -0.09859709233911464,
      -0.292691666890885,
      -0.15442435489398237,
      -0.3926730263230188,
      -0.08950472767260755,
      -0.27831173461952124,
      0.6942956342288463,
      -0.5559878027798089,
      -0.3034508373933143,
      0.8036669640573799,
      -0.27849050118093954
    ],
    [
      -0.1620275260463272,
      -0.4777606421908014,
      -0.5217911686242325,
      0.300107922139349,
      0.32127465589630244,
      -0.34688640018730776,
      -0.4064433026854426,
      -1.574288218715042,
      -0.40861164059805144,
      -0.0982863413187688,
      2.5329459110838743,
      -0.23203164163231477,
      -0.8387665093012068,
      0.9305485858334372,
      -0.1791203356952585,
      -0.059682323497111,
      0.18941684326931937,
      -0.09292110374012057,
      -0.2019517378765345,
      -0.4410882059821555,
      -0.006211379816868716,
      -0.3534280607339465,
      2.582609585104441,
      -0.21984311803817946,
      -0.9458002359914357,
      -0.16192732233863244,
      -0.06418108597722527,
      -0.062215406008299036,
      -0.3050443856359146,
      0.31253540576000277,
      -0.2255107372256646,
      -0.38484855642257165,
      0.5766094511627771,
      -0.27879868162488264,
      0.41676004749522705,
      -0.3756621223927209,
      -0.15786690907720072,
      -0.34003841084262465,
      -0.10807835505608591,
      0.3952540455020284,
      -0.1425966641260948,
      -0.09859709233911464,
      -0.292691666890885,
      -0.15442435489398237,
      -0.3926730263230188,
      -0.08950472767260755,
      -0.27831173461952124,
      0.6942956342288463,
      -0.5559878027798089,
      -0.3034508373933143,
      0.8036669640573799,
      -0.27849050118093954
    ],
    [
      0.029890688395528074,
      -0.16950470591019298,
      0.1480483327621971,
      0.07894709711360039,
      -0.18049202912576487,
      1.042942785421702,
      0.15812655044364746,
      0.6352077009229069,
      -0.40861164059805144,
      -0.0982863413187688,
      -0.39479721837885196,
      -0.23203164163231477,
      -0.8387665093012068,
      0.9305485858334372,
      -0.1791203356952585,
      -0.059682323497111,
      0.18941684326931937,
      -0.09292110374012057,
      -0.2019517378765345,
      -0.4410882059821555,
      -0.006211379816868716,
      -0.3534280607339465,
      -0.3872052538516231,
      -0.21984311803817946,
      1.0573057205380683,
      -0.16192732233863244,
      -0.06418108597722527,
      -0.062215406008299036,
      -0.3050443856359146,
      0.31253540576000277,
      -0.2255107372256646,
      -0.38484855642257165,
      0.5766094511627771,
      -0.27879868162488264,
      0.41676004749522705,
      -0.3756621223927209,
      -0.15786690907720072,
      -0.34003841084262465,
      -0.10807835505608591,
      0.3952540455020284,
      -0.1425966641260948,
      -0.09859709233911464,
      -0.292691666890885,
      -0.15442435489398237,
      -0.3926730263230188,
      -0.08950472767260755,
      -0.27831173461952124,
      0.6942956342288463,
      -0.5559878027798089,
      -0.3034508373933143,
      0.8036669640573799,
      -0.27849050118093954
    ],
    [
      0.08247102111932404,
      -0.17806737080687654,
      -0.1512003848884279,
      0.4403080880038861,
      0.8699902705110778,
      -1.6363390335023336,
      0.48278845689611843,
      -1.574288218715042,
      -0.40861164059805144,
      -0.0982863413187688,
      2.5329459110838743,
      -0.23203164163231477,
      -0.8387665093012068,
      0.9305485858334372,
      -0.1791203356952585,
      -0.059682323497111,
      0.18941684326931937,
      -0.09292110374012057,
      -0.2019517378765345,
      -0.4410882059821555,
      -0.006211379816868716,
      -0.3534280607339465,
      2.582609585104441,
      -0.21984311803817946,
      -0.9458002359914357,
      -0.16192732233863244,
      -0.06418108597722527,
      -0.062215406008299036,
      -0.3050443856359146,
      0.31253540576000277,
      -0.2255107372256646,
      -0.38484855642257165,
      0.5766094511627771,
      -0.27879868162488264,
      0.41676004749522705,
      -0.3756621223927209,
      -0.15786690907720072,
      -0.34003841084262465,
      -0.10807835505608591,
      0.3952540455020284,
      -0.1425966641260948,
      -0.09859709233911464,
      -0.292691666890885,
      -0.15442435489398237,
      -0.3926730263230188,
      -0.08950472767260755,
      -0.27831173461952124,
      0.6942956342288463,
      -0.5559878027798089,
      -0.3034508373933143,
      0.8036669640573799,
      -0.27849050118093954
    ],
    [
      -0.20803531717964865,
      -0.40069665812064925,
      0.2542127695931218,
      -0.22909833774369234,
      -0.3521490529491037,
      1.042942785421702,
      -0.7840764665895814,
      0.6352077009229069,
      -0.40861164059805144,
      -0.0982863413187688,
      -0.39479721837885196,
      -0.23203164163231477,
      -0.8387665093012068,
      0.9305485858334372,
      -0.1791203356952585,
      -0.059682323497111,
      0.18941684326931937,
      -0.09292110374012057,
      -0.2019517378765345,
      -0.4410882059821555,
      -0.006211379816868716,
      -0.3534280607339465,
      -0.3872052538516231,
      -0.21984311803817946,
      1.0573057205380683,
      -0.16192732233863244,
      -0.06418108597722527,
      -0.062215406008299036,
      -0.3050443856359146,
      0.31253540576000277,
      -0.2255107372256646,
      -0.38484855642257165,
      0.5766094511627771,
      -0.27879868162488264,
      0.41676004749522705,
      -0.3756621223927209,
      -0.15786690907720072,
      -0.34003841084262465,
      -0.10807835505608591,
      0.3952540455020284,
      -0.1425966641260948,
      -0.09859709233911464,
      -0.292691666890885,
      -0.15442435489398237,
      -0.3926730263230188,
      -0.08950472767260755,
      -0.27831173461952124,
      0.6942956342288463,
      -0.5559878027798089,
      -0.3034508373933143,
      0.8036669640573799,
      -0.27849050118093954
    ],
    [
      0.08904356270979853,
      -0.30650734425713005,
      -0.4693077148613543,
      0.4659785409086605,
      0.17602640496886193,
      1.042942785421702,
      -0.47923608647565186,
      0.6352077009229069,
      -0.40861164059805144,
      -0.0982863413187688,
      -0.39479721837885196,
      -0.23203164163231477,
      1.1922269057131527,
      -1.0746349145266378,
      -0.1791203356952585,
      -0.059682323497111,
      0.18941684326931937,
      -0.09292110374012057,
      -0.2019517378765345,
      2.267120241343419,
      -0.006211379816868716,
      -0.3534280607339465,
      -0.3872052538516231,
      -0.21984311803817946,
      -0.9458002359914357,
      -0.16192732233863244,
      -0.06418108597722527,
      -0.062215406008299036,
      -0.3050443856359146,
      0.31253540576000277,
      -0.2255107372256646,
      -0.38484855642257165,
      0.5766094511627771,
      -0.27879868162488264,
      0.41676004749522705,
      -0.3756621223927209,
      -0.15786690907720072,
      -0.34003841084262465,
      -0.10807835505608591,
      0.3952540455020284,
      -0.1425966641260948,
      -0.09859709233911464,
      -0.292691666890885,
      -0.15442435489398237,
      -0.3926730263230188,
      -0.08950472767260755,
      -0.27831173461952124,
      0.6942956342288463,
      -0.5559878027798089,
      -0.3034508373933143,
      0.8036669640573799,
      -0.27849050118093954
    ],
    [
      -0.33028459076247424,
      -0.17806737080687654,
      -0.4888888035413193,
      -0.3692985036082294,
      0.431311209629212,
      -0.24650984789332375,
      -0.6227707197715323,
      0.6352077009229069,
      -0.40861164059805144,
      -0.0982863413187688,
      -0.39479721837885196,
      4.309757035571183,
      -0.8387665093012068,
      -1.0746349145266378,
      -0.1791203356952585,
      -0.059682323497111,
      0.18941684326931937,
      -0.09292110374012057,
      -0.2019517378765345,
      -0.4410882059821555,
      -0.006211379816868716,
      -0.3534280607339465,
      -0.3872052538516231,
      -0.21984311803817946,
      1.0573057205380683,
      -0.16192732233863244,
      -0.06418108597722527,
      -0.062215406008299036,
      -0.3050443856359146,
      0.31253540576000277,
      -0.2255107372256646,
      -0.38484855642257165,
      0.5766094511627771,
      -0.27879868162488264,
      0.41676004749522705,
      -0.3756621223927209,
      -0.15786690907720072,
      -0.34003841084262465,
      -0.10807835505608591,
      -2.5300183802795964,
      7.012786772597454,
      -0.09859709233911464,
      -0.292691666890885,
      -0.15442435489398237,
      -0.3926730263230188,
      -0.08950472767260755,
      -0.27831173461952124,
      0.6942956342288463,
      -0.5559878027798089,
      -0.3034508373933143,
      0.8036669640573799,
      -0.27849050118093954
    ],
    [
      -0.03714923582731178,
      -0.5120113017775356,
      -0.5531149723503326,
      1.3901148454805385,
      0.7408807141311307,
      -1.1576200917925634,
      1.7728923483256742,
      -1.574288218715042,
      -0.40861164059805144,
      -0.0982863413187688,
      2.5329459110838743,
      -0.23203164163231477,
      -0.8387665093012068,
      0.9305485858334372,
      -0.1791203356952585,
      -0.059682323497111,
      0.18941684326931937,
      -0.09292110374012057,
      -0.2019517378765345,
      -0.4410882059821555,
      -0.006211379816868716,
      -0.3534280607339465,
      -0.3872052538516231,
      4.548698221366807,
      -0.9458002359914357,
      -0.16192732233863244,
      -0.06418108597722527,
      -0.062215406008299036,
      -0.3050443856359146,
      0.31253540576000277,
      -0.2255107372256646,
      -0.38484855642257165,
      0.5766094511627771,
      -0.27879868162488264,
      0.41676004749522705,
      -0.3756621223927209,
      -0.15786690907720072,
      -0.34003841084262465,
      -0.10807835505608591,
      0.3952540455020284,
      -0.1425966641260948,
      -0.09859709233911464,
      -0.292691666890885,
      -0.15442435489398237,
      -0.3926730263230188,
      -0.08950472767260755,
      -0.27831173461952124,
      0.6942956342288463,
      -0.5559878027798089,
      -0.3034508373933143,
      0.8036669640573799,
      -0.27849050118093954
    ],
    [
      -0.07658448537015874,
      1.1234576934890257,
      -0.16954930498580223,
      -0.8629610594692754,
      -0.9258062864100052,
      1.042942785421702,
      -0.7276877675325991,
      0.6352077009229069,
      -0.40861164059805144,
      -0.0982863413187688,
      -0.39479721837885196,
      -0.23203164163231477,
      -0.8387665093012068,
      0.9305485858334372,
      -0.1791203356952585,
      -0.059682323497111,
      0.18941684326931937,
      -0.09292110374012057,
      -0.2019517378765345,
      2.267120241343419,
      -0.006211379816868716,
      -0.3534280607339465,
      -0.3872052538516231,
      -0.21984311803817946,
      -0.9458002359914357,
      -0.16192732233863244,
      -0.06418108597722527,
      -0.062215406008299036,
      3.2782114573764005,
      -3.199637486089831,
      -0.2255107372256646,
      -0.38484855642257165,
      0.5766094511627771,
      -0.27879868162488264,
      0.41676004749522705,
      -0.3756621223927209,
      -0.15786690907720072,
      -0.34003841084262465,
      -0.10807835505608591,
      0.3952540455020284,
      -0.1425966641260948,
      -0.09859709233911464,
      -0.292691666890885,
      -0.15442435489398237,
      -0.3926730263230188,
      -0.08950472767260755,
      -0.27831173461952124,
      0.6942956342288463,
      -0.5559878027798089,
      -0.3034508373933143,
      0.8036669640573799,
      -0.27849050118093954
    ],
    [
      -0.04897981069016587,
      -0.40069665812064925,
      -0.3970798729678064,
      0.5745843031980906,
      1.5610198279537495,
      -1.6363390335023336,
      0.4728776937268475,
      -1.574288218715042,
      2.4473115805912475,
      -0.0982863413187688,
      -0.39479721837885196,
      -0.23203164163231477,
      1.1922269057131527,
      -1.0746349145266378,
      -0.1791203356952585,
      -0.059682323497111,
      0.18941684326931937,
      -0.09292110374012057,
      -0.2019517378765345,
      -0.4410882059821555,
      -0.006211379816868716,
      -0.3534280607339465,
      2.582609585104441,
      -0.21984311803817946,
      -0.9458002359914357,
      -0.16192732233863244,
      -0.06418108597722527,
      -0.062215406008299036,
      -0.3050443856359146,
      0.31253540576000277,
      -0.2255107372256646,
      -0.38484855642257165,
      0.5766094511627771,
      -0.27879868162488264,
      -2.399462246945473,
      -0.3756621223927209,
      6.334449732660413,
      -0.34003841084262465,
      -0.10807835505608591,
      0.3952540455020284,
      -0.1425966641260948,
      -0.09859709233911464,
      -0.292691666890885,
      -0.15442435489398237,
      -0.3926730263230188,
      -0.08950472767260755,
      -0.27831173461952124,
      0.6942956342288463,
      -0.5559878027798089,
      -0.3034508373933143,
      0.8036669640573799,
      -0.27849050118093954
    ],
    [
      0.015431096896484186,
      0.4812578262377581,
      -0.5446530917229027,
      1.417759948608757,
      0.9550852053978612,
      1.042942785421702,
      1.586980604774827,
      0.6352077009229069,
      -0.40861164059805144,
      -0.0982863413187688,
      -0.39479721837885196,
      -0.23203164163231477,
      -0.8387665093012068,
      0.9305485858334372,
      -0.1791203356952585,
      -0.059682323497111,
      0.18941684326931937,
      -0.09292110374012057,
      -0.2019517378765345,
      2.267120241343419,
      -0.006211379816868716,
      -0.3534280607339465,
      -0.3872052538516231,
      -0.21984311803817946,
      -0.9458002359914357,
      -0.16192732233863244,
      -0.06418108597722527,
      -0.062215406008299036,
      -0.3050443856359146,
      0.31253540576000277,
      -0.2255107372256646,
      -0.38484855642257165,
      0.5766094511627771,
      -0.27879868162488264,
      0.41676004749522705,
      -0.3756621223927209,
      -0.15786690907720072,
      -0.34003841084262465,
      -0.10807835505608591,
      0.3952540455020284,
      -0.1425966641260948,
      -0.09859709233911464,
      -0.292691666890885,
      -0.15442435489398237,
      -0.3926730263230188,
      -0.08950472767260755,
      -0.27831173461952124,
      0.6942956342288463,
      1.7986006077835415,
      -0.3034508373933143,
      -1.244296511768278,
      -0.27849050118093954
    ],
    [
      0.03777773830409747,
      -0.17806737080687654,
      -0.5058274102007886,
      0.09671894912459804,
      0.4225082853305792,
      0.10094744850892869,
      -1.1350529602104673,
      -1.574288218715042,
      -0.40861164059805144,
      -0.0982863413187688,
      2.5329459110838743,
      -0.23203164163231477,
      1.1922269057131527,
      -1.0746349145266378,
      -0.1791203356952585,
      -0.059682323497111,
      0.18941684326931937,
      -0.09292110374012057,
      4.951678111387984,
      -0.4410882059821555,
      -0.006211379816868716,
      -0.3534280607339465,
      -0.3872052538516231,
      -0.21984311803817946,
      -0.9458002359914357,
      -0.16192732233863244,
      -0.06418108597722527,
      -0.062215406008299036,
      -0.3050443856359146,
      0.31253540576000277,
      -0.2255107372256646,
      -0.38484855642257165,
      0.5766094511627771,
      -0.27879868162488264,
      -2.399462246945473,
      2.661966539587907,
      -0.15786690907720072,
      -0.34003841084262465,
      -0.10807835505608591,
      0.3952540455020284,
      -0.1425966641260948,
      -0.09859709233911464,
      -0.292691666890885,
      -0.15442435489398237,
      -0.3926730263230188,
      -0.08950472767260755,
      -0.27831173461952124,
      0.6942956342288463,
      -0.5559878027798089,
      -0.3034508373933143,
      0.8036669640573799,
      -0.27849050118093954
    ],
    [
      -0.050294319008260764,
      0.0017485920234783577,
      -0.5213062187403212,
      1.2795344329676643,
      0.4621214446744266,
      -0.8487691616572279,
      2.2209258000888106,
      0.6352077009229069,
      -0.40861164059805144,
      -0.0982863413187688,
      -0.39479721837885196,
      -0.23203164163231477,
      -0.8387665093012068,
      0.9305485858334372,
      -0.1791203356952585,
      -0.059682323497111,
      0.18941684326931937,
      -0.09292110374012057,
      -0.2019517378765345,
      2.267120241343419,
      -0.006211379816868716,
      -0.3534280607339465,
      -0.3872052538516231,
      -0.21984311803817946,
      -0.9458002359914357,
      -0.16192732233863244,
      -0.06418108597722527,
      -0.062215406008299036,
      -0.3050443856359146,
      0.31253540576000277,
      -0.2255107372256646,
      -0.38484855642257165,
      0.5766094511627771,
      -0.27879868162488264,
      0.41676004749522705,
      -0.3756621223927209,
      -0.15786690907720072,
      -0.34003841084262465,
      -0.10807835505608591,
      0.3952540455020284,
      -0.1425966641260948,
      -0.09859709233911464,
      3.4165646416329265,
      -0.15442435489398237,
      -0.3926730263230188,
      -0.08950472767260755,
      -0.27831173461952124,
      -1.4403086390003004,
      -0.5559878027798089,
      -0.3034508373933143,
      0.8036669640573799,
      -0.27849050118093954
    ],
    [
      -0.022689644328267887,
      -0.32363267405049717,
      0.028033133430584497,
      0.03945409264471671,
      0.19950086976521594,
      1.042942785421702,
      0.297218535726027,
      -1.574288218715042,
      2.4473115805912475,
      -0.0982863413187688,
      -0.39479721837885196,
      -0.23203164163231477,
      -0.8387665093012068,
      0.9305485858334372,
      -0.1791203356952585,
      -0.059682323497111,
      0.18941684326931937,
      -0.09292110374012057,
      -0.2019517378765345,
      -0.4410882059821555,
      -0.006211379816868716,
      -0.3534280607339465,
      -0.3872052538516231,
      -0.21984311803817946,
      1.0573057205380683,
      -0.16192732233863244,
      -0.06418108597722527,
      -0.062215406008299036,
      -0.3050443856359146,
      0.31253540576000277,
      -0.2255107372256646,
      -0.38484855642257165,
      0.5766094511627771,
      -0.27879868162488264,
      0.41676004749522705,
      -0.3756621223927209,
      -0.15786690907720072,
      -0.34003841084262465,
      -0.10807835505608591,
      0.3952540455020284,
      -0.1425966641260948,
      -0.09859709233911464,
      -0.292691666890885,
      -0.15442435489398237,
      -0.3926730263230188,
      -0.08950472767260755,
      -0.27831173461952124,
      0.6942956342288463,
      1.7986006077835415,
      -0.3034508373933143,
      -1.244296511768278,
      -0.27849050118093954
    ],
    [
      0.15608348693263838,
      0.4213191719609731,
      -0.5169911544671523,
      -0.12444187590115058,
      -0.8715215865684365,
      1.042942785421702,
      3.1074237628265693,
      0.6352077009229069,
      -0.40861164059805144,
      -0.0982863413187688,
      -0.39479721837885196,
      -0.23203164163231477,
      1.1922269057131527,
      -1.0746349145266378,
      -0.1791203356952585,
      -0.059682323497111,
      0.18941684326931937,
      -0.09292110374012057,
      -0.2019517378765345,
      -0.4410882059821555,
      -0.006211379816868716,
      2.8294301191686646,
      -0.3872052538516231,
      -0.21984311803817946,
      -0.9458002359914357,
      -0.16192732233863244,
      -0.06418108597722527,
      -0.062215406008299036,
      3.2782114573764005,
      -3.199637486089831,
      -0.2255107372256646,
      -0.38484855642257165,
      0.5766094511627771,
      -0.27879868162488264,
      -2.399462246945473,
      2.661966539587907,
      -0.15786690907720072,
      -0.34003841084262465,
      -0.10807835505608591,
      0.3952540455020284,
      -0.1425966641260948,
      -0.09859709233911464,
      3.4165646416329265,
      -0.15442435489398237,
      -0.3926730263230188,
      -0.08950472767260755,
      -0.27831173461952124,
      -1.4403086390003004,
      -0.5559878027798089,
      -0.3034508373933143,
      0.8036669640573799,
      -0.27849050118093954
    ],
    [
      0.20340578638405474,
      -0.17806737080687654,
      0.7474414408082218,
      0.471902491578993,
      0.6381799306470818,
      -1.6363390335023336,
      1.1396307977732023,
      -1.574288218715042,
      -0.40861164059805144,
      -0.0982863413187688,
      2.5329459110838743,
      -0.23203164163231477,
      1.1922269057131527,
      -1.0746349145266378,
      -0.1791203356952585,
      -0.059682323497111,
      0.18941684326931937,
      -0.09292110374012057,
      -0.2019517378765345,
      -0.4410882059821555,
      -0.006211379816868716,
      -0.3534280607339465,
      2.582609585104441,
      -0.21984311803817946,
      -0.9458002359914357,
      -0.16192732233863244,
      -0.06418108597722527,
      -0.062215406008299036,
      -0.3050443856359146,
      0.31253540576000277,
      -0.2255107372256646,
      -0.38484855642257165,
      -1.7342761170206693,
      3.5868175350465883,
      0.41676004749522705,
      -0.3756621223927209,
      -0.15786690907720072,
      2.9408442343968493,
      -0.10807835505608591,
      -2.5300183802795964,
      -0.1425966641260948,
      -0.09859709233911464,
      -0.292691666890885,
      -0.15442435489398237,
      -0.3926730263230188,
      -0.08950472767260755,
      3.5930931958981005,
      -1.4403086390003004,
      -0.5559878027798089,
      -0.3034508373933143,
      -1.244296511768278,
      3.5907867441061643
    ],
    [
      0.002286013715535195,
      -0.27225668467039577,
      1.9341632914209297,
      0.2132233123078049,
      -0.077791245641716,
      1.042942785421702,
      -0.6610467436596719,
      0.6352077009229069,
      -0.40861164059805144,
      -0.0982863413187688,
      -0.39479721837885196,
      -0.23203164163231477,
      -0.8387665093012068,
      0.9305485858334372,
      -0.1791203356952585,
      -0.059682323497111,
      0.18941684326931937,
      -0.09292110374012057,
      -0.2019517378765345,
      -0.4410882059821555,
      -0.006211379816868716,
      -0.3534280607339465,
      -0.3872052538516231,
      -0.21984311803817946,
      1.0573057205380683,
      -0.16192732233863244,
      -0.06418108597722527,
      -0.062215406008299036,
      -0.3050443856359146,
      0.31253540576000277,
      -0.2255107372256646,
      -0.38484855642257165,
      0.5766094511627771,
      -0.27879868162488264,
      0.41676004749522705,
      -0.3756621223927209,
      -0.15786690907720072,
      -0.34003841084262465,
      -0.10807835505608591,
      0.3952540455020284,
      -0.1425966641260948,
      -0.09859709233911464,
      -0.292691666890885,
      -0.15442435489398237,
      -0.3926730263230188,
      -0.08950472767260755,
      -0.27831173461952124,
      0.6942956342288463,
      -0.5559878027798089,
      -0.3034508373933143,
      0.8036669640573799,
      -0.27849050118093954
    ],
    [
      0.002286013715535195,
      1.1491456881790763,
      -0.5563067343413807,
      0.4600545902383279,
      0.4166396691314907,
      -0.5321969582685091,
      0.14719058086619063,
      0.6352077009229069,
      -0.40861164059805144,
      -0.0982863413187688,
      -0.39479721837885196,
      -0.23203164163231477,
      -0.8387665093012068,
      0.9305485858334372,
      -0.1791203356952585,
      -0.059682323497111,
      0.18941684326931937,
      -0.09292110374012057,
      4.951678111387984,
      -0.4410882059821555,
      -0.006211379816868716,
      -0.3534280607339465,
      -0.3872052538516231,
      -0.21984311803817946,
      -0.9458002359914357,
      -0.16192732233863244,
      -0.06418108597722527,
      -0.062215406008299036,
      -0.3050443856359146,
      0.31253540576000277,
      -0.2255107372256646,
      -0.38484855642257165,
      0.5766094511627771,
      -0.27879868162488264,
      0.41676004749522705,
      -0.3756621223927209,
      -0.15786690907720072,
      -0.34003841084262465,
      -0.10807835505608591,
      0.3952540455020284,
      -0.1425966641260948,
      -0.09859709233911464,
      -0.292691666890885,
      -0.15442435489398237,
      -0.3926730263230188,
      -0.08950472767260755,
      -0.27831173461952124,
      0.6942956342288463,
      -0.5559878027798089,
      -0.3034508373933143,
      0.8036669640573799,
      -0.27849050118093954
    ],
    [
      -0.25535761663106504,
      -0.4606353123974342,
      -0.34590776327876976,
      -1.2203727499126726,
      -0.9331420566588658,
      -1.1962264580594804,
      -0.9822909477727464,
      0.6352077009229069,
      -0.40861164059805144,
      -0.0982863413187688,
      -0.39479721837885196,
      -0.23203164163231477,
      1.1922269057131527,
      -1.0746349145266378,
      -0.1791203356952585,
      -0.059682323497111,
      0.18941684326931937,
      -0.09292110374012057,
      -0.2019517378765345,
      2.267120241343419,
      -0.006211379816868716,
      -0.3534280607339465,
      -0.3872052538516231,
      -0.21984311803817946,
      -0.9458002359914357,
      -0.16192732233863244,
      -0.06418108597722527,
      -0.062215406008299036,
      3.2782114573764005,
      -3.199637486089831,
      -0.2255107372256646,
      -0.38484855642257165,
      0.5766094511627771,
      -0.27879868162488264,
      0.41676004749522705,
      -0.3756621223927209,
      -0.15786690907720072,
      -0.34003841084262465,
      -0.10807835505608591,
      0.3952540455020284,
      -0.1425966641260948,
      -0.09859709233911464,
      -0.292691666890885,
      -0.15442435489398237,
      -0.3926730263230188,
      -0.08950472767260755,
      -0.27831173461952124,
      0.6942956342288463,
      1.7986006077835415,
      -0.3034508373933143,
      -1.244296511768278,
      -0.27849050118093954
    ],
    [
      0.010173063624104589,
      0.5155084858244924,
      1.0035296187907512,
      -0.7958229518721731,
      -1.0681202292379015,
      1.042942785421702,
      2.0893520820444915,
      0.6352077009229069,
      -0.40861164059805144,
      -0.0982863413187688,
      -0.39479721837885196,
      -0.23203164163231477,
      -0.8387665093012068,
      0.9305485858334372,
      -0.1791203356952585,
      -0.059682323497111,
      0.18941684326931937,
      -0.09292110374012057,
      -0.2019517378765345,
      -0.4410882059821555,
      -0.006211379816868716,
      2.8294301191686646,
      -0.3872052538516231,
      -0.21984311803817946,
      -0.9458002359914357,
      -0.16192732233863244,
      -0.06418108597722527,
      -0.062215406008299036,
      -0.3050443856359146,
      0.31253540576000277,
      -0.2255107372256646,
      -0.38484855642257165,
      0.5766094511627771,
      -0.27879868162488264,
      0.41676004749522705,
      -0.3756621223927209,
      -0.15786690907720072,
      -0.34003841084262465,
      -0.10807835505608591,
      0.3952540455020284,
      -0.1425966641260948,
      -0.09859709233911464,
      3.4165646416329265,
      -0.15442435489398237,
      -0.3926730263230188,
      -0.08950472767260755,
      -0.27831173461952124,
      -1.4403086390003004,
      -0.5559878027798089,
      -0.3034508373933143,
      0.8036669640573799,
      -0.27849050118093954
    ],
    [
      -0.37892139853198553,
      -0.40069665812064925,
      -0.5336674923118533,
      0.3771192808536722,
      -0.06458685919376685,
      1.042942785421702,
      -0.663780540503475,
      0.6352077009229069,
      -0.40861164059805144,
      -0.0982863413187688,
      -0.39479721837885196,
      -0.23203164163231477,
      1.1922269057131527,
      -1.0746349145266378,
      -0.1791203356952585,
      -0.059682323497111,
      0.18941684326931937,
      10.761817926708824,
      -0.2019517378765345,
      -0.4410882059821555,
      -0.006211379816868716,
      -0.3534280607339465,
      -0.3872052538516231,
      -0.21984311803817946,
      -0.9458002359914357,
      -0.16192732233863244,
      -0.06418108597722527,
      -0.062215406008299036,
      -0.3050443856359146,
      0.31253540576000277,
      -0.2255107372256646,
      -0.38484855642257165,
      0.5766094511627771,
      -0.27879868162488264,
      -2.399462246945473,
      2.661966539587907,
      -0.15786690907720072,
      -0.34003841084262465,
      -0.10807835505608591,
      -2.5300183802795964,
      7.012786772597454,
      -0.09859709233911464,
      3.4165646416329265,
      -0.15442435489398237,
      -0.3926730263230188,
      -0.08950472767260755,
      -0.27831173461952124,
      -1.4403086390003004,
      1.7986006077835415,
      -0.3034508373933143,
      -1.244296511768278,
      -0.27849050118093954
    ],
    [
      -0.29873639112819667,
      0.23294054423393465,
      2.531671033081545,
      1.4434304015135315,
      1.2543846315513751,
      -1.6363390335023336,
      0.16769549123216249,
      0.6352077009229069,
      -0.40861164059805144,
      -0.0982863413187688,
      -0.39479721837885196,
      -0.23203164163231477,
      -0.8387665093012068,
      0.9305485858334372,
      -0.1791203356952585,
      -0.059682323497111,
      0.18941684326931937,
      -0.09292110374012057,
      -0.2019517378765345,
      -0.4410882059821555,
      -0.006211379816868716,
      -0.3534280607339465,
      -0.3872052538516231,
      -0.21984311803817946,
      1.0573057205380683,
      -0.16192732233863244,
      -0.06418108597722527,
      -0.062215406008299036,
      3.2782114573764005,
      -3.199637486089831,
      -0.2255107372256646,
      -0.38484855642257165,
      0.5766094511627771,
      -0.27879868162488264,
      0.41676004749522705,
      -0.3756621223927209,
      -0.15786690907720072,
      -0.34003841084262465,
      -0.10807835505608591,
      0.3952540455020284,
      -0.1425966641260948,
      -0.09859709233911464,
      -0.292691666890885,
      -0.15442435489398237,
      -0.3926730263230188,
      -0.08950472767260755,
      -0.27831173461952124,
      0.6942956342288463,
      1.7986006077835415,
      -0.3034508373933143,
      -1.244296511768278,
      -0.27849050118093954
    ],
    [
      -0.09235858518729753,
      0.6867617837581637,
      -0.5023634824585659,
      -0.3475773511503434,
      -0.702798870844642,
      1.042942785421702,
      -0.42934070898262455,
      0.6352077009229069,
      -0.40861164059805144,
      -0.0982863413187688,
      -0.39479721837885196,
      -0.23203164163231477,
      -0.8387665093012068,
      0.9305485858334372,
      -0.1791203356952585,
      -0.059682323497111,
      0.18941684326931937,
      -0.09292110374012057,
      -0.2019517378765345,
      -0.4410882059821555,
      -0.006211379816868716,
      -0.3534280607339465,
      -0.3872052538516231,
      -0.21984311803817946,
      1.0573057205380683,
      -0.16192732233863244,
      -0.06418108597722527,
      -0.062215406008299036,
      -0.3050443856359146,
      0.31253540576000277,
      4.434378656654906,
      -0.38484855642257165,
      -1.7342761170206693,
      -0.27879868162488264,
      0.41676004749522705,
      -0.3756621223927209,
      -0.15786690907720072,
      -0.34003841084262465,
      -0.10807835505608591,
      0.3952540455020284,
      -0.1425966641260948,
      -0.09859709233911464,
      -0.292691666890885,
      -0.15442435489398237,
      2.546648058217741,
      -0.08950472767260755,
      -0.27831173461952124,
      -1.4403086390003004,
      1.7986006077835415,
      -0.3034508373933143,
      -1.244296511768278,
      -0.27849050118093954
    ],
    [
      -0.3368571323529488,
      -0.4606353123974342,
      -0.5557327120298123,
      -1.5422407363340747,
      -1.6373760005494866,
      -0.2696736676534739,
      1.3997020931691186,
      0.6352077009229069,
      -0.40861164059805144,
      -0.0982863413187688,
      -0.39479721837885196,
      4.309757035571183,
      -0.8387665093012068,
      -1.0746349145266378,
      -0.1791203356952585,
      -0.059682323497111,
      0.18941684326931937,
      -0.09292110374012057,
      -0.2019517378765345,
      -0.4410882059821555,
      -0.006211379816868716,
      -0.3534280607339465,
      -0.3872052538516231,
      -0.21984311803817946,
      1.0573057205380683,
      -0.16192732233863244,
      -0.06418108597722527,
      -0.062215406008299036,
      -0.3050443856359146,
      0.31253540576000277,
      -0.2255107372256646,
      -0.38484855642257165,
      0.5766094511627771,
      -0.27879868162488264,
      0.41676004749522705,
      -0.3756621223927209,
      -0.15786690907720072,
      -0.34003841084262465,
      -0.10807835505608591,
      -2.5300183802795964,
      7.012786772597454,
      -0.09859709233911464,
      -0.292691666890885,
      -0.15442435489398237,
      -0.3926730263230188,
      -0.08950472767260755,
      -0.27831173461952124,
      0.6942956342288463,
      1.7986006077835415,
      -0.3034508373933143,
      -1.244296511768278,
      -0.27849050118093954
    ],
    [
      -0.10418916005015162,
      -0.17806737080687654,
      -0.49106612955071643,
      0.7878465273300624,
      0.8450486516649517,
      -1.1962264580594804,
      -0.19660920716330943,
      -1.574288218715042,
      2.4473115805912475,
      -0.0982863413187688,
      -0.39479721837885196,
      -0.23203164163231477,
      -0.8387665093012068,
      0.9305485858334372,
      -0.1791203356952585,
      -0.059682323497111,
      0.18941684326931937,
      -0.09292110374012057,
      -0.2019517378765345,
      -0.4410882059821555,
      -0.006211379816868716,
      -0.3534280607339465,
      2.582609585104441,
      -0.21984311803817946,
      -0.9458002359914357,
      -0.16192732233863244,
      -0.06418108597722527,
      -0.062215406008299036,
      -0.3050443856359146,
      0.31253540576000277,
      -0.2255107372256646,
      -0.38484855642257165,
      -1.7342761170206693,
      3.5868175350465883,
      0.41676004749522705,
      -0.3756621223927209,
      -0.15786690907720072,
      2.9408442343968493,
      -0.10807835505608591,
      -2.5300183802795964,
      -0.1425966641260948,
      -0.09859709233911464,
      -0.292691666890885,
      -0.15442435489398237,
      -0.3926730263230188,
      -0.08950472767260755,
      3.5930931958981005,
      -1.4403086390003004,
      -0.5559878027798089,
      -0.3034508373933143,
      -1.244296511768278,
      3.5907867441061643
    ],
    [
      -0.09367309350539244,
      -0.4435099826040671,
      -0.18818028777075754,
      -0.8116201536597266,
      -0.7189375653921354,
      1.042942785421702,
      -0.8825001927866928,
      0.6352077009229069,
      -0.40861164059805144,
      -0.0982863413187688,
      -0.39479721837885196,
      -0.23203164163231477,
      -0.8387665093012068,
      0.9305485858334372,
      -0.1791203356952585,
      -0.059682323497111,
      0.18941684326931937,
      -0.09292110374012057,
      -0.2019517378765345,
      -0.4410882059821555,
      -0.006211379816868716,
      2.8294301191686646,
      -0.3872052538516231,
      -0.21984311803817946,
      -0.9458002359914357,
      -0.16192732233863244,
      -0.06418108597722527,
      -0.062215406008299036,
      -0.3050443856359146,
      0.31253540576000277,
      -0.2255107372256646,
      -0.38484855642257165,
      0.5766094511627771,
      -0.27879868162488264,
      0.41676004749522705,
      -0.3756621223927209,
      -0.15786690907720072,
      -0.34003841084262465,
      -0.10807835505608591,
      0.3952540455020284,
      -0.1425966641260948,
      -0.09859709233911464,
      -0.292691666890885,
      6.475662473620398,
      -0.3926730263230188,
      -0.08950472767260755,
      -0.27831173461952124,
      -1.4403086390003004,
      1.7986006077835415,
      -0.3034508373933143,
      -1.244296511768278,
      -0.27849050118093954
    ],
    [
      0.12190627066217101,
      -0.12669138142677513,
      -0.5427083437190547,
      -0.7010397411468523,
      -0.4460469121345198,
      1.042942785421702,
      -1.3790619932539139,
      0.6352077009229069,
      -0.40861164059805144,
      -0.0982863413187688,
      -0.39479721837885196,
      -0.23203164163231477,
      -0.8387665093012068,
      0.9305485858334372,
      -0.1791203356952585,
      -0.059682323497111,
      0.18941684326931937,
      -0.09292110374012057,
      -0.2019517378765345,
      2.267120241343419,
      -0.006211379816868716,
      -0.3534280607339465,
      -0.3872052538516231,
      -0.21984311803817946,
      -0.9458002359914357,
      -0.16192732233863244,
      -0.06418108597722527,
      -0.062215406008299036,
      -0.3050443856359146,
      0.31253540576000277,
      -0.2255107372256646,
      -0.38484855642257165,
      0.5766094511627771,
      -0.27879868162488264,
      0.41676004749522705,
      -0.3756621223927209,
      -0.15786690907720072,
      -0.34003841084262465,
      -0.10807835505608591,
      0.3952540455020284,
      -0.1425966641260948,
      -0.09859709233911464,
      -0.292691666890885,
      -0.15442435489398237,
      -0.3926730263230188,
      -0.08950472767260755,
      -0.27831173461952124,
      0.6942956342288463,
      1.7986006077835415,
      -0.3034508373933143,
      -1.244296511768278,
      -0.27849050118093954
    ],
    [
      -0.2869058162653426,
      0.23294054423393465,
      -0.5526646617438437,
      -0.5114733196962107,
      -0.0675211672933111,
      -1.6363390335023336,
      -0.8578941960538946,
      0.6352077009229069,
      -0.40861164059805144,
      -0.0982863413187688,
      -0.39479721837885196,
      -0.23203164163231477,
      -0.8387665093012068,
      0.9305485858334372,
      -0.1791203356952585,
      -0.059682323497111,
      0.18941684326931937,
      -0.09292110374012057,
      -0.2019517378765345,
      -0.4410882059821555,
      -0.006211379816868716,
      -0.3534280607339465,
      -0.3872052538516231,
      -0.21984311803817946,
      1.0573057205380683,
      -0.16192732233863244,
      -0.06418108597722527,
      -0.062215406008299036,
      3.2782114573764005,
      -3.199637486089831,
      -0.2255107372256646,
      -0.38484855642257165,
      0.5766094511627771,
      -0.27879868162488264,
      0.41676004749522705,
      -0.3756621223927209,
      -0.15786690907720072,
      -0.34003841084262465,
      -0.10807835505608591,
      0.3952540455020284,
      -0.1425966641260948,
      -0.09859709233911464,
      -0.292691666890885,
      -0.15442435489398237,
      -0.3926730263230188,
      -0.08950472767260755,
      -0.27831173461952124,
      0.6942956342288463,
      1.7986006077835415,
      -0.3034508373933143,
      -1.244296511768278,
      -0.27849050118093954
    ],
    [
      0.11007569579931692,
      -0.27225668467039577,
      -0.22814906544780514,
      -0.5568902748354269,
      -0.7072003329939583,
      1.042942785421702,
      0.7151781363346772,
      0.6352077009229069,
      -0.40861164059805144,
      -0.0982863413187688,
      -0.39479721837885196,
      -0.23203164163231477,
      -0.8387665093012068,
      0.9305485858334372,
      -0.1791203356952585,
      -0.059682323497111,
      0.18941684326931937,
      -0.09292110374012057,
      -0.2019517378765345,
      -0.4410882059821555,
      -0.006211379816868716,
      -0.3534280607339465,
      -0.3872052538516231,
      -0.21984311803817946,
      1.0573057205380683,
      -0.16192732233863244,
      -0.06418108597722527,
      -0.062215406008299036,
      -0.3050443856359146,
      0.31253540576000277,
      -0.2255107372256646,
      -0.38484855642257165,
      0.5766094511627771,
      -0.27879868162488264,
      0.41676004749522705,
      -0.3756621223927209,
      -0.15786690907720072,
      -0.34003841084262465,
      -0.10807835505608591,
      0.3952540455020284,
      -0.1425966641260948,
      -0.09859709233911464,
      -0.292691666890885,
      -0.15442435489398237,
      -0.3926730263230188,
      -0.08950472767260755,
      -0.27831173461952124,
      0.6942956342288463,
      1.7986006077835415,
      -0.3034508373933143,
      -1.244296511768278,
      -0.27849050118093954
    ],
    [
      -0.22249490867869254,
      -0.3921339932239657,
      0.5642343025220595,
      1.5520361638029616,
      1.229443012705249,
      -0.2696736676534739,
      0.5053440408125435,
      0.6352077009229069,
      -0.40861164059805144,
      -0.0982863413187688,
      -0.39479721837885196,
      -0.23203164163231477,
      -0.8387665093012068,
      0.9305485858334372,
      -0.1791203356952585,
      -0.059682323497111,
      0.18941684326931937,
      -0.09292110374012057,
      -0.2019517378765345,
      -0.4410882059821555,
      -0.006211379816868716,
      -0.3534280607339465,
      -0.3872052538516231,
      -0.21984311803817946,
      1.0573057205380683,
      -0.16192732233863244,
      -0.06418108597722527,
      -0.062215406008299036,
      -0.3050443856359146,
      0.31253540576000277,
      -0.2255107372256646,
      -0.38484855642257165,
      0.5766094511627771,
      -0.27879868162488264,
      0.41676004749522705,
      -0.3756621223927209,
      -0.15786690907720072,
      -0.34003841084262465,
      -0.10807835505608591,
      0.3952540455020284,
      -0.1425966641260948,
      -0.09859709233911464,
      -0.292691666890885,
      -0.15442435489398237,
      -0.3926730263230188,
      -0.08950472767260755,
      -0.27831173461952124,
      0.6942956342288463,
      -0.5559878027798089,
      -0.3034508373933143,
      0.8036669640573799,
      -0.27849050118093954
    ],
    [
      -0.1423099012749037,
      -0.17806737080687654,
      -0.0334812748030887,
      0.40476438398189074,
      -0.11740440498556341,
      1.042942785421702,
      -0.24718822941784763,
      0.6352077009229069,
      -0.40861164059805144,
      -0.0982863413187688,
      -0.39479721837885196,
      -0.23203164163231477,
      1.1922269057131527,
      -1.0746349145266378,
      -0.1791203356952585,
      -0.059682323497111,
      0.18941684326931937,
      -0.09292110374012057,
      -0.2019517378765345,
      2.267120241343419,
      -0.006211379816868716,
      -0.3534280607339465,
      -0.3872052538516231,
      -0.21984311803817946,
      -0.9458002359914357,
      -0.16192732233863244,
      -0.06418108597722527,
      -0.062215406008299036,
      -0.3050443856359146,
      0.31253540576000277,
      -0.2255107372256646,
      -0.38484855642257165,
      -1.7342761170206693,
      3.5868175350465883,
      0.41676004749522705,
      -0.3756621223927209,
      -0.15786690907720072,
      2.9408442343968493,
      -0.10807835505608591,
      -2.5300183802795964,
      -0.1425966641260948,
      -0.09859709233911464,
      -0.292691666890885,
      -0.15442435489398237,
      -0.3926730263230188,
      -0.08950472767260755,
      3.5930931958981005,
      -1.4403086390003004,
      -0.5559878027798089,
      -0.3034508373933143,
      -1.244296511768278,
      3.5907867441061643
    ],
    [
      -0.058181368916830165,
      0.34425518789082105,
      1.0386439491604837,
      0.5271926978354302,
      0.11147162677888835,
      1.042942785421702,
      -0.05888425066987213,
      0.6352077009229069,
      -0.40861164059805144,
      -0.0982863413187688,
      -0.39479721837885196,
      -0.23203164163231477,
      -0.8387665093012068,
      0.9305485858334372,
      -0.1791203356952585,
      -0.059682323497111,
      0.18941684326931937,
      -0.09292110374012057,
      -0.2019517378765345,
      -0.4410882059821555,
      -0.006211379816868716,
      -0.3534280607339465,
      -0.3872052538516231,
      -0.21984311803817946,
      1.0573057205380683,
      -0.16192732233863244,
      -0.06418108597722527,
      -0.062215406008299036,
      -0.3050443856359146,
      0.31253540576000277,
      -0.2255107372256646,
      -0.38484855642257165,
      0.5766094511627771,
      -0.27879868162488264,
      0.41676004749522705,
      -0.3756621223927209,
      -0.15786690907720072,
      -0.34003841084262465,
      -0.10807835505608591,
      0.3952540455020284,
      -0.1425966641260948,
      -0.09859709233911464,
      -0.292691666890885,
      -0.15442435489398237,
      -0.3926730263230188,
      -0.08950472767260755,
      -0.27831173461952124,
      0.6942956342288463,
      -0.5559878027798089,
      -0.3034508373933143,
      0.8036669640573799,
      -0.27849050118093954
    ],
    [
      -0.1370518680025241,
      0.2243778793372511,
      0.7551857935461913,
      -0.6635213869014128,
      -0.7570835706862107,
      1.042942785421702,
      -0.4187463010518422,
      0.6352077009229069,
      -0.40861164059805144,
      -0.0982863413187688,
      -0.39479721837885196,
      -0.23203164163231477,
      1.1922269057131527,
      -1.0746349145266378,
      -0.1791203356952585,
      -0.059682323497111,
      0.18941684326931937,
      -0.09292110374012057,
      -0.2019517378765345,
      -0.4410882059821555,
      -0.006211379816868716,
      -0.3534280607339465,
      -0.3872052538516231,
      -0.21984311803817946,
      1.0573057205380683,
      -0.16192732233863244,
      -0.06418108597722527,
      -0.062215406008299036,
      -0.3050443856359146,
      0.31253540576000277,
      -0.2255107372256646,
      -0.38484855642257165,
      0.5766094511627771,
      -0.27879868162488264,
      -2.399462246945473,
      2.661966539587907,
      -0.15786690907720072,
      -0.34003841084262465,
      -0.10807835505608591,
      0.3952540455020284,
      -0.1425966641260948,
      -0.09859709233911464,
      -0.292691666890885,
      -0.15442435489398237,
      -0.3926730263230188,
      -0.08950472767260755,
      -0.27831173461952124,
      0.6942956342288463,
      -0.5559878027798089,
      -0.3034508373933143,
      0.8036669640573799,
      -0.27849050118093954
    ],
    [
      -0.21197884213393334,
      -0.4948859719841685,
      1.9465443588652744,
      -1.1650825436562355,
      -0.934609210708638,
      -2.1691068879857873,
      -0.14124597524859492,
      -1.574288218715042,
      2.4473115805912475,
      -0.0982863413187688,
      -0.39479721837885196,
      -0.23203164163231477,
      1.1922269057131527,
      -1.0746349145266378,
      5.5828390233776855,
      -0.059682323497111,
      -5.2793615538094745,
      -0.09292110374012057,
      -0.2019517378765345,
      -0.4410882059821555,
      -0.006211379816868716,
      -0.3534280607339465,
      2.582609585104441,
      -0.21984311803817946,
      -0.9458002359914357,
      -0.16192732233863244,
      -0.06418108597722527,
      -0.062215406008299036,
      -0.3050443856359146,
      0.31253540576000277,
      -0.2255107372256646,
      -0.38484855642257165,
      0.5766094511627771,
      -0.27879868162488264,
      0.41676004749522705,
      -0.3756621223927209,
      -0.15786690907720072,
      -0.34003841084262465,
      -0.10807835505608591,
      0.3952540455020284,
      -0.1425966641260948,
      -0.09859709233911464,
      -0.292691666890885,
      -0.15442435489398237,
      -0.3926730263230188,
      -0.08950472767260755,
      -0.27831173461952124,
      0.6942956342288463,
      1.7986006077835415,
      -0.3034508373933143,
      -1.244296511768278,
      -0.27849050118093954
    ],
    [
      -0.06738292714349446,
      -0.2979446793604465,
      -0.14478222162890944,
      1.2420160787222247,
      0.8171727247192813,
      1.042942785421702,
      -0.8886516919698924,
      0.6352077009229069,
      -0.40861164059805144,
      -0.0982863413187688,
      -0.39479721837885196,
      -0.23203164163231477,
      -0.8387665093012068,
      0.9305485858334372,
      -0.1791203356952585,
      -0.059682323497111,
      0.18941684326931937,
      -0.09292110374012057,
      -0.2019517378765345,
      -0.4410882059821555,
      -0.006211379816868716,
      -0.3534280607339465,
      -0.3872052538516231,
      -0.21984311803817946,
      1.0573057205380683,
      -0.16192732233863244,
      -0.06418108597722527,
      -0.062215406008299036,
      -0.3050443856359146,
      0.31253540576000277,
      -0.2255107372256646,
      -0.38484855642257165,
      0.5766094511627771,
      -0.27879868162488264,
      0.41676004749522705,
      -0.3756621223927209,
      -0.15786690907720072,
      -0.34003841084262465,
      -0.10807835505608591,
      0.3952540455020284,
      -0.1425966641260948,
      -0.09859709233911464,
      -0.292691666890885,
      -0.15442435489398237,
      -0.3926730263230188,
      -0.08950472767260755,
      -0.27831173461952124,
      0.6942956342288463,
      -0.5559878027798089,
      -0.3034508373933143,
      0.8036669640573799,
      -0.27849050118093954
    ],
    [
      0.012802080260294387,
      -0.17806737080687654,
      -0.403869171342563,
      1.6270728722938408,
      1.3497496447865633,
      -0.24650984789332375,
      0.5200392743760721,
      -1.574288218715042,
      -0.40861164059805144,
      -0.0982863413187688,
      2.5329459110838743,
      -0.23203164163231477,
      -0.8387665093012068,
      0.9305485858334372,
      -0.1791203356952585,
      -0.059682323497111,
      0.18941684326931937,
      -0.09292110374012057,
      -0.2019517378765345,
      -0.4410882059821555,
      -0.006211379816868716,
      -0.3534280607339465,
      2.582609585104441,
      -0.21984311803817946,
      -0.9458002359914357,
      -0.16192732233863244,
      -0.06418108597722527,
      -0.062215406008299036,
      -0.3050443856359146,
      0.31253540576000277,
      -0.2255107372256646,
      -0.38484855642257165,
      0.5766094511627771,
      -0.27879868162488264,
      0.41676004749522705,
      -0.3756621223927209,
      -0.15786690907720072,
      -0.34003841084262465,
      -0.10807835505608591,
      0.3952540455020284,
      -0.1425966641260948,
      -0.09859709233911464,
      -0.292691666890885,
      -0.15442435489398237,
      -0.3926730263230188,
      -0.08950472767260755,
      -0.27831173461952124,
      0.6942956342288463,
      -0.5559878027798089,
      -0.3034508373933143,
      0.8036669640573799,
      -0.27849050118093954
    ],
    [
      -0.08841506023301283,
      -0.17806737080687654,
      0.3429635468170723,
      -1.1078176871763543,
      -1.060784458989041,
      -1.188505184806097,
      0.3795802603047503,
      -1.574288218715042,
      2.4473115805912475,
      -0.0982863413187688,
      -0.39479721837885196,
      -0.23203164163231477,
      1.1922269057131527,
      -1.0746349145266378,
      -0.1791203356952585,
      -0.059682323497111,
      0.18941684326931937,
      -0.09292110374012057,
      -0.2019517378765345,
      -0.4410882059821555,
      -0.006211379816868716,
      -0.3534280607339465,
      2.582609585104441,
      -0.21984311803817946,
      -0.9458002359914357,
      -0.16192732233863244,
      -0.06418108597722527,
      -0.062215406008299036,
      -0.3050443856359146,
      0.31253540576000277,
      -0.2255107372256646,
      -0.38484855642257165,
      -1.7342761170206693,
      3.5868175350465883,
      0.41676004749522705,
      -0.3756621223927209,
      -0.15786690907720072,
      2.9408442343968493,
      -0.10807835505608591,
      -2.5300183802795964,
      -0.1425966641260948,
      -0.09859709233911464,
      -0.292691666890885,
      -0.15442435489398237,
      -0.3926730263230188,
      -0.08950472767260755,
      3.5930931958981005,
      -1.4403086390003004,
      -0.5559878027798089,
      -0.3034508373933143,
      -1.244296511768278,
      3.5907867441061643
    ],
    [
      -0.17648711754537108,
      -0.02393940266657234,
      -0.5353351260963235,
      -0.07902492076193433,
      0.09239862413185071,
      -1.4587497486745156,
      0.5654917431215162,
      -1.574288218715042,
      -0.40861164059805144,
      -0.0982863413187688,
      2.5329459110838743,
      -0.23203164163231477,
      -0.8387665093012068,
      0.9305485858334372,
      -0.1791203356952585,
      -0.059682323497111,
      0.18941684326931937,
      -0.09292110374012057,
      -0.2019517378765345,
      -0.4410882059821555,
      -0.006211379816868716,
      -0.3534280607339465,
      -0.3872052538516231,
      -0.21984311803817946,
      1.0573057205380683,
      -0.16192732233863244,
      -0.06418108597722527,
      -0.062215406008299036,
      -0.3050443856359146,
      0.31253540576000277,
      -0.2255107372256646,
      -0.38484855642257165,
      0.5766094511627771,
      -0.27879868162488264,
      0.41676004749522705,
      -0.3756621223927209,
      -0.15786690907720072,
      -0.34003841084262465,
      -0.10807835505608591,
      0.3952540455020284,
      -0.1425966641260948,
      -0.09859709233911464,
      -0.292691666890885,
      -0.15442435489398237,
      -0.3926730263230188,
      -0.08950472767260755,
      -0.27831173461952124,
      0.6942956342288463,
      -0.5559878027798089,
      -0.3034508373933143,
      0.8036669640573799,
      -0.27849050118093954
    ],
    [
      0.2546716107897558,
      -0.07531539204667374,
      -0.5388584354569843,
      0.7483535228611788,
      0.3447491206926565,
      1.042942785421702,
      0.6010337094317703,
      0.6352077009229069,
      -0.40861164059805144,
      -0.0982863413187688,
      -0.39479721837885196,
      -0.23203164163231477,
      1.1922269057131527,
      -1.0746349145266378,
      -0.1791203356952585,
      -0.059682323497111,
      0.18941684326931937,
      10.761817926708824,
      -0.2019517378765345,
      -0.4410882059821555,
      -0.006211379816868716,
      -0.3534280607339465,
      -0.3872052538516231,
      -0.21984311803817946,
      -0.9458002359914357,
      -0.16192732233863244,
      -0.06418108597722527,
      -0.062215406008299036,
      -0.3050443856359146,
      0.31253540576000277,
      -0.2255107372256646,
      2.5984247135955973,
      -1.7342761170206693,
      -0.27879868162488264,
      -2.399462246945473,
      2.661966539587907,
      -0.15786690907720072,
      -0.34003841084262465,
      -0.10807835505608591,
      0.3952540455020284,
      -0.1425966641260948,
      -0.09859709233911464,
      -0.292691666890885,
      -0.15442435489398237,
      2.546648058217741,
      -0.08950472767260755,
      -0.27831173461952124,
      -1.4403086390003004,
      -0.5559878027798089,
      3.2954267274071203,
      -1.244296511768278,
      -0.27849050118093954
    ],
    [
      -0.052923335644450564,
      -0.17806737080687654,
      -0.33611474470468566,
      0.8115423300113926,
      3.23064113659443,
      -1.0572435394985795,
      -0.39482394908055585,
      -1.574288218715042,
      2.4473115805912475,
      -0.0982863413187688,
      -0.39479721837885196,
      -0.23203164163231477,
      -0.8387665093012068,
      0.9305485858334372,
      -0.1791203356952585,
      -0.059682323497111,
      0.18941684326931937,
      -0.09292110374012057,
      -0.2019517378765345,
      -0.4410882059821555,
      -0.006211379816868716,
      -0.3534280607339465,
      -0.3872052538516231,
      -0.21984311803817946,
      1.0573057205380683,
      -0.16192732233863244,
      -0.06418108597722527,
      -0.062215406008299036,
      -0.3050443856359146,
      0.31253540576000277,
      -0.2255107372256646,
      -0.38484855642257165,
      0.5766094511627771,
      -0.27879868162488264,
      0.41676004749522705,
      -0.3756621223927209,
      -0.15786690907720072,
      -0.34003841084262465,
      -0.10807835505608591,
      0.3952540455020284,
      -0.1425966641260948,
      -0.09859709233911464,
      -0.292691666890885,
      -0.15442435489398237,
      -0.3926730263230188,
      -0.08950472767260755,
      -0.27831173461952124,
      0.6942956342288463,
      -0.5559878027798089,
      -0.3034508373933143,
      0.8036669640573799,
      -0.27849050118093954
    ],
    [
      0.11007569579931692,
      -0.32363267405049717,
      -0.5168229065482444,
      0.7542774735315113,
      0.4885302175703249,
      1.042942785421702,
      -0.8954868359146038,
      0.6352077009229069,
      -0.40861164059805144,
      -0.0982863413187688,
      -0.39479721837885196,
      -0.23203164163231477,
      1.1922269057131527,
      -1.0746349145266378,
      -0.1791203356952585,
      -0.059682323497111,
      0.18941684326931937,
      -0.09292110374012057,
      -0.2019517378765345,
      -0.4410882059821555,
      -0.006211379816868716,
      -0.3534280607339465,
      -0.3872052538516231,
      -0.21984311803817946,
      1.0573057205380683,
      -0.16192732233863244,
      -0.06418108597722527,
      -0.062215406008299036,
      -0.3050443856359146,
      0.31253540576000277,
      -0.2255107372256646,
      -0.38484855642257165,
      0.5766094511627771,
      -0.27879868162488264,
      0.41676004749522705,
      -0.3756621223927209,
      -0.15786690907720072,
      -0.34003841084262465,
      -0.10807835505608591,
      0.3952540455020284,
      -0.1425966641260948,
      -0.09859709233911464,
      -0.292691666890885,
      -0.15442435489398237,
      -0.3926730263230188,
      -0.08950472767260755,
      -0.27831173461952124,
      0.6942956342288463,
      -0.5559878027798089,
      -0.3034508373933143,
      0.8036669640573799,
      -0.27849050118093954
    ],
    [
      -0.3000508994462916,
      0.5840098049979608,
      -0.5513384722653927,
      -1.427711023374312,
      -1.5801569926083736,
      -0.2696736676534739,
      0.742176107530523,
      0.6352077009229069,
      -0.40861164059805144,
      -0.0982863413187688,
      -0.39479721837885196,
      4.309757035571183,
      -0.8387665093012068,
      -1.0746349145266378,
      -0.1791203356952585,
      -0.059682323497111,
      0.18941684326931937,
      -0.09292110374012057,
      -0.2019517378765345,
      -0.4410882059821555,
      -0.006211379816868716,
      -0.3534280607339465,
      -0.3872052538516231,
      -0.21984311803817946,
      1.0573057205380683,
      -0.16192732233863244,
      -0.06418108597722527,
      -0.062215406008299036,
      -0.3050443856359146,
      0.31253540576000277,
      -0.2255107372256646,
      -0.38484855642257165,
      0.5766094511627771,
      -0.27879868162488264,
      0.41676004749522705,
      -0.3756621223927209,
      -0.15786690907720072,
      -0.34003841084262465,
      -0.10807835505608591,
      -2.5300183802795964,
      7.012786772597454,
      -0.09859709233911464,
      -0.292691666890885,
      -0.15442435489398237,
      -0.3926730263230188,
      -0.08950472767260755,
      -0.27831173461952124,
      0.6942956342288463,
      1.7986006077835415,
      -0.3034508373933143,
      -1.244296511768278,
      -0.27849050118093954
    ],
    [
      -0.19489023399869967,
      -0.45207264750075066,
      -0.5569005505257618,
      -0.4877775170148804,
      -0.37855782584500197,
      -1.188505184806097,
      -0.2608582565731895,
      0.6352077009229069,
      -0.40861164059805144,
      -0.0982863413187688,
      -0.39479721837885196,
      -0.23203164163231477,
      -0.8387665093012068,
      0.9305485858334372,
      -0.1791203356952585,
      -0.059682323497111,
      0.18941684326931937,
      -0.09292110374012057,
      -0.2019517378765345,
      -0.4410882059821555,
      -0.006211379816868716,
      -0.3534280607339465,
      -0.3872052538516231,
      -0.21984311803817946,
      1.0573057205380683,
      -0.16192732233863244,
      -0.06418108597722527,
      -0.062215406008299036,
      -0.3050443856359146,
      0.31253540576000277,
      -0.2255107372256646,
      -0.38484855642257165,
      0.5766094511627771,
      -0.27879868162488264,
      0.41676004749522705,
      -0.3756621223927209,
      -0.15786690907720072,
      -0.34003841084262465,
      -0.10807835505608591,
      0.3952540455020284,
      -0.1425966641260948,
      -0.09859709233911464,
      -0.292691666890885,
      -0.15442435489398237,
      -0.3926730263230188,
      -0.08950472767260755,
      -0.27831173461952124,
      0.6942956342288463,
      -0.5559878027798089,
      -0.3034508373933143,
      0.8036669640573799,
      -0.27849050118093954
    ],
    [
      -0.22118040036059763,
      -0.5890752858476878,
      0.2804050117925291,
      0.5923561552090882,
      0.3667564314392384,
      -0.2696736676534739,
      -0.5725335198977495,
      -1.574288218715042,
      -0.40861164059805144,
      -0.0982863413187688,
      2.5329459110838743,
      -0.23203164163231477,
      -0.8387665093012068,
      0.9305485858334372,
      -0.1791203356952585,
      -0.059682323497111,
      0.18941684326931937,
      -0.09292110374012057,
      -0.2019517378765345,
      -0.4410882059821555,
      -0.006211379816868716,
      -0.3534280607339465,
      2.582609585104441,
      -0.21984311803817946,
      -0.9458002359914357,
      -0.16192732233863244,
      -0.06418108597722527,
      -0.062215406008299036,
      -0.3050443856359146,
      0.31253540576000277,
      -0.2255107372256646,
      -0.38484855642257165,
      0.5766094511627771,
      -0.27879868162488264,
      0.41676004749522705,
      -0.3756621223927209,
      -0.15786690907720072,
      -0.34003841084262465,
      -0.10807835505608591,
      0.3952540455020284,
      -0.1425966641260948,
      -0.09859709233911464,
      -0.292691666890885,
      -0.15442435489398237,
      -0.3926730263230188,
      -0.08950472767260755,
      -0.27831173461952124,
      0.6942956342288463,
      -0.5559878027798089,
      -0.3034508373933143,
      0.8036669640573799,
      -0.27849050118093954
    ],
    [
      0.19026070320310576,
      0.4213191719609731,
      -0.17566066321672383,
      -1.1413867409749054,
      -0.9756895241022575,
      1.042942785421702,
      -0.7495597066875127,
      0.6352077009229069,
      -0.40861164059805144,
      -0.0982863413187688,
      -0.39479721837885196,
      -0.23203164163231477,
      1.1922269057131527,
      -1.0746349145266378,
      -0.1791203356952585,
      -0.059682323497111,
      0.18941684326931937,
      10.761817926708824,
      -0.2019517378765345,
      -0.4410882059821555,
      -0.006211379816868716,
      -0.3534280607339465,
      -0.3872052538516231,
      -0.21984311803817946,
      -0.9458002359914357,
      -0.16192732233863244,
      -0.06418108597722527,
      -0.062215406008299036,
      3.2782114573764005,
      -3.199637486089831,
      -0.2255107372256646,
      -0.38484855642257165,
      0.5766094511627771,
      -0.27879868162488264,
      0.41676004749522705,
      -0.3756621223927209,
      -0.15786690907720072,
      -0.34003841084262465,
      -0.10807835505608591,
      0.3952540455020284,
      -0.1425966641260948,
      -0.09859709233911464,
      3.4165646416329265,
      -0.15442435489398237,
      -0.3926730263230188,
      -0.08950472767260755,
      -0.27831173461952124,
      -1.4403086390003004,
      -0.5559878027798089,
      -0.3034508373933143,
      0.8036669640573799,
      -0.27849050118093954
    ],
    [
      0.029890688395528074,
      -0.43494731770738354,
      -0.5551388958454313,
      0.23296981454224674,
      -0.16582048862804358,
      -0.34688640018730776,
      0.5425945975584158,
      0.6352077009229069,
      -0.40861164059805144,
      -0.0982863413187688,
      -0.39479721837885196,
      -0.23203164163231477,
      1.1922269057131527,
      -1.0746349145266378,
      -0.1791203356952585,
      -0.059682323497111,
      0.18941684326931937,
      -0.09292110374012057,
      4.951678111387984,
      -0.4410882059821555,
      -0.006211379816868716,
      -0.3534280607339465,
      -0.3872052538516231,
      -0.21984311803817946,
      -0.9458002359914357,
      -0.16192732233863244,
      -0.06418108597722527,
      -0.062215406008299036,
      -0.3050443856359146,
      0.31253540576000277,
      -0.2255107372256646,
      -0.38484855642257165,
      0.5766094511627771,
      -0.27879868162488264,
      -2.399462246945473,
      2.661966539587907,
      -0.15786690907720072,
      -0.34003841084262465,
      -0.10807835505608591,
      0.3952540455020284,
      -0.1425966641260948,
      -0.09859709233911464,
      -0.292691666890885,
      -0.15442435489398237,
      -0.3926730263230188,
      -0.08950472767260755,
      -0.27831173461952124,
      0.6942956342288463,
      -0.5559878027798089,
      -0.3034508373933143,
      0.8036669640573799,
      -0.27849050118093954
    ],
    [
      -0.15545498445585268,
      0.035999251610212626,
      -0.17342890405709174,
      -1.0505528306964729,
      -1.1957626315680765,
      1.042942785421702,
      0.2486901870219425,
      0.6352077009229069,
      -0.40861164059805144,
      -0.0982863413187688,
      -0.39479721837885196,
      -0.23203164163231477,
      -0.8387665093012068,
      0.9305485858334372,
      -0.1791203356952585,
      -0.059682323497111,
      0.18941684326931937,
      -0.09292110374012057,
      -0.2019517378765345,
      -0.4410882059821555,
      -0.006211379816868716,
      -0.3534280607339465,
      -0.3872052538516231,
      -0.21984311803817946,
      1.0573057205380683,
      -0.16192732233863244,
      -0.06418108597722527,
      -0.062215406008299036,
      3.2782114573764005,
      -3.199637486089831,
      -0.2255107372256646,
      -0.38484855642257165,
      0.5766094511627771,
      -0.27879868162488264,
      0.41676004749522705,
      -0.3756621223927209,
      -0.15786690907720072,
      -0.34003841084262465,
      -0.10807835505608591,
      0.3952540455020284,
      -0.1425966641260948,
      -0.09859709233911464,
      -0.292691666890885,
      -0.15442435489398237,
      -0.3926730263230188,
      -0.08950472767260755,
      -0.27831173461952124,
      0.6942956342288463,
      -0.5559878027798089,
      -0.3034508373933143,
      0.8036669640573799,
      -0.27849050118093954
    ],
    [
      -0.06212489387111486,
      0.4298818368576567,
      1.2058625866821862,
      -0.6595720864545245,
      -0.46511991478155745,
      -0.5321969582685091,
      -0.21984817510716534,
      0.6352077009229069,
      -0.40861164059805144,
      -0.0982863413187688,
      -0.39479721837885196,
      -0.23203164163231477,
      -0.8387665093012068,
      0.9305485858334372,
      -0.1791203356952585,
      -0.059682323497111,
      0.18941684326931937,
      -0.09292110374012057,
      -0.2019517378765345,
      -0.4410882059821555,
      -0.006211379816868716,
      -0.3534280607339465,
      -0.3872052538516231,
      -0.21984311803817946,
      1.0573057205380683,
      -0.16192732233863244,
      -0.06418108597722527,
      -0.062215406008299036,
      -0.3050443856359146,
      0.31253540576000277,
      -0.2255107372256646,
      -0.38484855642257165,
      0.5766094511627771,
      -0.27879868162488264,
      0.41676004749522705,
      -0.3756621223927209,
      -0.15786690907720072,
      -0.34003841084262465,
      -0.10807835505608591,
      0.3952540455020284,
      -0.1425966641260948,
      -0.09859709233911464,
      -0.292691666890885,
      -0.15442435489398237,
      -0.3926730263230188,
      -0.08950472767260755,
      -0.27831173461952124,
      0.6942956342288463,
      -0.5559878027798089,
      -0.3034508373933143,
      0.8036669640573799,
      -0.27849050118093954
    ],
    [
      -0.24484155008630581,
      -0.6918272646078906,
      -0.3971590484590572,
      -1.0979444360591333,
      -0.18929495342439762,
      0.10094744850892869,
      -1.3606077564383965,
      -1.574288218715042,
      -0.40861164059805144,
      -0.0982863413187688,
      2.5329459110838743,
      -0.23203164163231477,
      1.1922269057131527,
      -1.0746349145266378,
      5.5828390233776855,
      -0.059682323497111,
      -5.2793615538094745,
      -0.09292110374012057,
      -0.2019517378765345,
      -0.4410882059821555,
      -0.006211379816868716,
      -0.3534280607339465,
      -0.3872052538516231,
      4.548698221366807,
      -0.9458002359914357,
      -0.16192732233863244,
      -0.06418108597722527,
      -0.062215406008299036,
      -0.3050443856359146,
      0.31253540576000277,
      -0.2255107372256646,
      -0.38484855642257165,
      0.5766094511627771,
      -0.27879868162488264,
      0.41676004749522705,
      -0.3756621223927209,
      -0.15786690907720072,
      -0.34003841084262465,
      -0.10807835505608591,
      0.3952540455020284,
      -0.1425966641260948,
      -0.09859709233911464,
      -0.292691666890885,
      -0.15442435489398237,
      -0.3926730263230188,
      -0.08950472767260755,
      -0.27831173461952124,
      0.6942956342288463,
      -0.5559878027798089,
      -0.3034508373933143,
      0.8036669640573799,
      -0.27849050118093954
    ],
    [
      -0.10944719332253122,
      -0.6490139401244727,
      -0.21458036563469823,
      -0.29821109556423875,
      -0.30226581525685137,
      1.042942785421702,
      -1.1675193072961634,
      0.6352077009229069,
      -0.40861164059805144,
      -0.0982863413187688,
      -0.39479721837885196,
      -0.23203164163231477,
      1.1922269057131527,
      -1.0746349145266378,
      -0.1791203356952585,
      -0.059682323497111,
      0.18941684326931937,
      -0.09292110374012057,
      -0.2019517378765345,
      -0.4410882059821555,
      -0.006211379816868716,
      -0.3534280607339465,
      -0.3872052538516231,
      -0.21984311803817946,
      -0.9458002359914357,
      6.175610054915488,
      -0.06418108597722527,
      -0.062215406008299036,
      -0.3050443856359146,
      0.31253540576000277,
      4.434378656654906,
      -0.38484855642257165,
      -1.7342761170206693,
      -0.27879868162488264,
      -2.399462246945473,
      2.661966539587907,
      -0.15786690907720072,
      -0.34003841084262465,
      -0.10807835505608591,
      0.3952540455020284,
      -0.1425966641260948,
      -0.09859709233911464,
      -0.292691666890885,
      -0.15442435489398237,
      -0.3926730263230188,
      -0.08950472767260755,
      -0.27831173461952124,
      0.6942956342288463,
      -0.5559878027798089,
      -0.3034508373933143,
      0.8036669640573799,
      -0.27849050118093954
    ],
    [
      -0.1607130177282323,
      0.6439484592747459,
      -0.20520796685788406,
      -0.10272072344326455,
      -0.5575506199172015,
      1.042942785421702,
      -0.12620891930431125,
      0.6352077009229069,
      -0.40861164059805144,
      -0.0982863413187688,
      -0.39479721837885196,
      -0.23203164163231477,
      -0.8387665093012068,
      0.9305485858334372,
      -0.1791203356952585,
      -0.059682323497111,
      0.18941684326931937,
      -0.09292110374012057,
      -0.2019517378765345,
      -0.4410882059821555,
      -0.006211379816868716,
      -0.3534280607339465,
      -0.3872052538516231,
      -0.21984311803817946,
      1.0573057205380683,
      -0.16192732233863244,
      -0.06418108597722527,
      -0.062215406008299036,
      -0.3050443856359146,
      0.31253540576000277,
      -0.2255107372256646,
      -0.38484855642257165,
      0.5766094511627771,
      -0.27879868162488264,
      0.41676004749522705,
      -0.3756621223927209,
      -0.15786690907720072,
      -0.34003841084262465,
      -0.10807835505608591,
      0.3952540455020284,
      -0.1425966641260948,
      -0.09859709233911464,
      -0.292691666890885,
      -0.15442435489398237,
      -0.3926730263230188,
      -0.08950472767260755,
      -0.27831173461952124,
      0.6942956342288463,
      -0.5559878027798089,
      -0.3034508373933143,
      0.8036669640573799,
      -0.27849050118093954
    ],
    [
      0.07064044625646995,
      0.13018856547373187,
      -0.5502992939427258,
      0.578533603644979,
      0.48999737162009704,
      -0.34688640018730776,
      0.6434108196867372,
      0.6352077009229069,
      -0.40861164059805144,
      -0.0982863413187688,
      -0.39479721837885196,
      -0.23203164163231477,
      1.1922269057131527,
      -1.0746349145266378,
      -0.1791203356952585,
      -0.059682323497111,
      0.18941684326931937,
      -0.09292110374012057,
      -0.2019517378765345,
      2.267120241343419,
      -0.006211379816868716,
      -0.3534280607339465,
      -0.3872052538516231,
      -0.21984311803817946,
      -0.9458002359914357,
      -0.16192732233863244,
      -0.06418108597722527,
      -0.062215406008299036,
      -0.3050443856359146,
      0.31253540576000277,
      -0.2255107372256646,
      -0.38484855642257165,
      0.5766094511627771,
      -0.27879868162488264,
      -2.399462246945473,
      2.661966539587907,
      -0.15786690907720072,
      -0.34003841084262465,
      -0.10807835505608591,
      0.3952540455020284,
      -0.1425966641260948,
      -0.09859709233911464,
      -0.292691666890885,
      -0.15442435489398237,
      -0.3926730263230188,
      -0.08950472767260755,
      -0.27831173461952124,
      0.6942956342288463,
      -0.5559878027798089,
      -0.3034508373933143,
      0.8036669640573799,
      -0.27849050118093954
    ],
    [
      0.14688192870597408,
      0.08737524099031402,
      -0.5567520964796665,
      -0.4542084632163293,
      -0.5560834658674293,
      1.042942785421702,
      -0.6490853069399473,
      0.6352077009229069,
      -0.40861164059805144,
      -0.0982863413187688,
      -0.39479721837885196,
      -0.23203164163231477,
      1.1922269057131527,
      -1.0746349145266378,
      -0.1791203356952585,
      -0.059682323497111,
      0.18941684326931937,
      -0.09292110374012057,
      4.951678111387984,
      -0.4410882059821555,
      -0.006211379816868716,
      -0.3534280607339465,
      -0.3872052538516231,
      -0.21984311803817946,
      -0.9458002359914357,
      -0.16192732233863244,
      -0.06418108597722527,
      -0.062215406008299036,
      -0.3050443856359146,
      0.31253540576000277,
      -0.2255107372256646,
      -0.38484855642257165,
      0.5766094511627771,
      -0.27879868162488264,
      -2.399462246945473,
      2.661966539587907,
      -0.15786690907720072,
      -0.34003841084262465,
      -0.10807835505608591,
      0.3952540455020284,
      -0.1425966641260948,
      -0.09859709233911464,
      3.4165646416329265,
      -0.15442435489398237,
      -0.3926730263230188,
      -0.08950472767260755,
      -0.27831173461952124,
      -1.4403086390003004,
      -0.5559878027798089,
      -0.3034508373933143,
      0.8036669640573799,
      -0.27849050118093954
    ],
    [
      -0.1593985094101374,
      -0.4178219879140164,
      1.9991861636106543,
      2.80198975524313,
      2.040779202229235,
      -0.8487691616572279,
      1.0302711019986341,
      0.6352077009229069,
      -0.40861164059805144,
      -0.0982863413187688,
      -0.39479721837885196,
      -0.23203164163231477,
      -0.8387665093012068,
      0.9305485858334372,
      -0.1791203356952585,
      -0.059682323497111,
      0.18941684326931937,
      -0.09292110374012057,
      -0.2019517378765345,
      -0.4410882059821555,
      -0.006211379816868716,
      -0.3534280607339465,
      -0.3872052538516231,
      -0.21984311803817946,
      1.0573057205380683,
      -0.16192732233863244,
      -0.06418108597722527,
      -0.062215406008299036,
      -0.3050443856359146,
      0.31253540576000277,
      4.434378656654906,
      -0.38484855642257165,
      -1.7342761170206693,
      -0.27879868162488264,
      0.41676004749522705,
      -0.3756621223927209,
      -0.15786690907720072,
      -0.34003841084262465,
      -0.10807835505608591,
      0.3952540455020284,
      -0.1425966641260948,
      -0.09859709233911464,
      -0.292691666890885,
      -0.15442435489398237,
      -0.3926730263230188,
      -0.08950472767260755,
      -0.27831173461952124,
      0.6942956342288463,
      -0.5559878027798089,
      -0.3034508373933143,
      0.8036669640573799,
      -0.27849050118093954
    ],
    [
      -0.08184251864253834,
      -0.5376992964675863,
      1.0191667783127853,
      -0.8234680550003918,
      -1.0431786103917753,
      -0.34688640018730776,
      0.4974836904596462,
      -1.574288218715042,
      2.4473115805912475,
      -0.0982863413187688,
      -0.39479721837885196,
      -0.23203164163231477,
      -0.8387665093012068,
      0.9305485858334372,
      -0.1791203356952585,
      -0.059682323497111,
      0.18941684326931937,
      -0.09292110374012057,
      -0.2019517378765345,
      -0.4410882059821555,
      -0.006211379816868716,
      -0.3534280607339465,
      2.582609585104441,
      -0.21984311803817946,
      -0.9458002359914357,
      -0.16192732233863244,
      -0.06418108597722527,
      -0.062215406008299036,
      -0.3050443856359146,
      0.31253540576000277,
      -0.2255107372256646,
      -0.38484855642257165,
      0.5766094511627771,
      -0.27879868162488264,
      0.41676004749522705,
      -0.3756621223927209,
      -0.15786690907720072,
      -0.34003841084262465,
      -0.10807835505608591,
      0.3952540455020284,
      -0.1425966641260948,
      -0.09859709233911464,
      -0.292691666890885,
      -0.15442435489398237,
      -0.3926730263230188,
      -0.08950472767260755,
      -0.27831173461952124,
      0.6942956342288463,
      1.7986006077835415,
      -0.3034508373933143,
      -1.244296511768278,
      -0.27849050118093954
    ],
    [
      -0.26193015822153953,
      -0.6575766050211562,
      -0.17670479000759384,
      -0.5529409743885385,
      0.7144719412352324,
      -0.34688640018730776,
      -0.9846834437039564,
      0.6352077009229069,
      -0.40861164059805144,
      -0.0982863413187688,
      -0.39479721837885196,
      -0.23203164163231477,
      1.1922269057131527,
      -1.0746349145266378,
      -0.1791203356952585,
      -0.059682323497111,
      0.18941684326931937,
      -0.09292110374012057,
      -0.2019517378765345,
      -0.4410882059821555,
      -0.006211379816868716,
      -0.3534280607339465,
      -0.3872052538516231,
      4.548698221366807,
      -0.9458002359914357,
      -0.16192732233863244,
      -0.06418108597722527,
      -0.062215406008299036,
      -0.3050443856359146,
      0.31253540576000277,
      -0.2255107372256646,
      -0.38484855642257165,
      -1.7342761170206693,
      3.5868175350465883,
      0.41676004749522705,
      -0.3756621223927209,
      -0.15786690907720072,
      2.9408442343968493,
      -0.10807835505608591,
      -2.5300183802795964,
      -0.1425966641260948,
      -0.09859709233911464,
      -0.292691666890885,
      -0.15442435489398237,
      -0.3926730263230188,
      -0.08950472767260755,
      3.5930931958981005,
      -1.4403086390003004,
      -0.5559878027798089,
      -0.3034508373933143,
      -1.244296511768278,
      3.5907867441061643
    ],
    [
      -0.1409953929568088,
      -0.43494731770738354,
      -0.20882529711440526,
      -0.8116201536597266,
      -0.7189375653921354,
      1.042942785421702,
      -0.8825001927866928,
      -1.574288218715042,
      2.4473115805912475,
      -0.0982863413187688,
      -0.39479721837885196,
      -0.23203164163231477,
      1.1922269057131527,
      -1.0746349145266378,
      -0.1791203356952585,
      -0.059682323497111,
      0.18941684326931937,
      -0.09292110374012057,
      -0.2019517378765345,
      -0.4410882059821555,
      -0.006211379816868716,
      -0.3534280607339465,
      2.582609585104441,
      -0.21984311803817946,
      -0.9458002359914357,
      -0.16192732233863244,
      -0.06418108597722527,
      -0.062215406008299036,
      -0.3050443856359146,
      0.31253540576000277,
      -0.2255107372256646,
      -0.38484855642257165,
      0.5766094511627771,
      -0.27879868162488264,
      -2.399462246945473,
      2.661966539587907,
      -0.15786690907720072,
      -0.34003841084262465,
      -0.10807835505608591,
      0.3952540455020284,
      -0.1425966641260948,
      -0.09859709233911464,
      -0.292691666890885,
      6.475662473620398,
      -0.3926730263230188,
      -0.08950472767260755,
      -0.27831173461952124,
      -1.4403086390003004,
      1.7986006077835415,
      -0.3034508373933143,
      -1.244296511768278,
      -0.27849050118093954
    ],
    [
      -0.1541404761377578,
      -0.38357132832728214,
      1.190819243344533,
      -0.7543552971798453,
      -0.6353097845551241,
      -0.34688640018730776,
      -0.05136572269773029,
      0.6352077009229069,
      -0.40861164059805144,
      -0.0982863413187688,
      -0.39479721837885196,
      -0.23203164163231477,
      -0.8387665093012068,
      0.9305485858334372,
      -0.1791203356952585,
      -0.059682323497111,
      0.18941684326931937,
      -0.09292110374012057,
      -0.2019517378765345,
      -0.4410882059821555,
      -0.006211379816868716,
      2.8294301191686646,
      -0.3872052538516231,
      -0.21984311803817946,
      -0.9458002359914357,
      -0.16192732233863244,
      -0.06418108597722527,
      -0.062215406008299036,
      -0.3050443856359146,
      0.31253540576000277,
      -0.2255107372256646,
      -0.38484855642257165,
      0.5766094511627771,
      -0.27879868162488264,
      0.41676004749522705,
      -0.3756621223927209,
      -0.15786690907720072,
      -0.34003841084262465,
      -0.10807835505608591,
      0.3952540455020284,
      -0.1425966641260948,
      -0.09859709233911464,
      -0.292691666890885,
      -0.15442435489398237,
      -0.3926730263230188,
      -0.08950472767260755,
      -0.27831173461952124,
      0.6942956342288463,
      -0.5559878027798089,
      -0.3034508373933143,
      0.8036669640573799,
      -0.27849050118093954
    ],
    [
      -0.004286527874939301,
      -0.5376992964675863,
      0.06722995006793671,
      -0.4166901089708898,
      -0.7820251895323368,
      1.042942785421702,
      -0.2840972245170454,
      0.6352077009229069,
      -0.40861164059805144,
      -0.0982863413187688,
      -0.39479721837885196,
      -0.23203164163231477,
      -0.8387665093012068,
      0.9305485858334372,
      -0.1791203356952585,
      -0.059682323497111,
      0.18941684326931937,
      -0.09292110374012057,
      -0.2019517378765345,
      -0.4410882059821555,
      -0.006211379816868716,
      -0.3534280607339465,
      -0.3872052538516231,
      -0.21984311803817946,
      1.0573057205380683,
      -0.16192732233863244,
      -0.06418108597722527,
      -0.062215406008299036,
      -0.3050443856359146,
      0.31253540576000277,
      -0.2255107372256646,
      -0.38484855642257165,
      0.5766094511627771,
      -0.27879868162488264,
      0.41676004749522705,
      -0.3756621223927209,
      -0.15786690907720072,
      -0.34003841084262465,
      -0.10807835505608591,
      0.3952540455020284,
      -0.1425966641260948,
      -0.09859709233911464,
      3.4165646416329265,
      -0.15442435489398237,
      -0.3926730263230188,
      -0.08950472767260755,
      -0.27831173461952124,
      -1.4403086390003004,
      -0.5559878027798089,
      -0.3034508373933143,
      0.8036669640573799,
      -0.27849050118093954
    ],
    [
      0.1389948787974047,
      -0.15237937611682584,
      -0.48855725617170653,
      -0.6832678891358547,
      -0.7189375653921354,
      1.042942785421702,
      0.20357927992317296,
      0.6352077009229069,
      -0.40861164059805144,
      -0.0982863413187688,
      -0.39479721837885196,
      -0.23203164163231477,
      1.1922269057131527,
      -1.0746349145266378,
      -0.1791203356952585,
      -0.059682323497111,
      0.18941684326931937,
      -0.09292110374012057,
      -0.2019517378765345,
      2.267120241343419,
      -0.006211379816868716,
      -0.3534280607339465,
      -0.3872052538516231,
      -0.21984311803817946,
      -0.9458002359914357,
      -0.16192732233863244,
      -0.06418108597722527,
      -0.062215406008299036,
      3.2782114573764005,
      -3.199637486089831,
      -0.2255107372256646,
      -0.38484855642257165,
      0.5766094511627771,
      -0.27879868162488264,
      -2.399462246945473,
      2.661966539587907,
      -0.15786690907720072,
      -0.34003841084262465,
      -0.10807835505608591,
      0.3952540455020284,
      -0.1425966641260948,
      -0.09859709233911464,
      3.4165646416329265,
      -0.15442435489398237,
      -0.3926730263230188,
      -0.08950472767260755,
      -0.27831173461952124,
      -1.4403086390003004,
      -0.5559878027798089,
      -0.3034508373933143,
      0.8036669640573799,
      -0.27849050118093954
    ],
    [
      0.015431096896484186,
      0.16443922506046613,
      0.15756918558510652,
      -0.6911664900296314,
      -0.34481328270024303,
      -0.5321969582685091,
      0.2715873325850425,
      -1.574288218715042,
      2.4473115805912475,
      -0.0982863413187688,
      -0.39479721837885196,
      -0.23203164163231477,
      1.1922269057131527,
      -1.0746349145266378,
      5.5828390233776855,
      -0.059682323497111,
      -5.2793615538094745,
      -0.09292110374012057,
      -0.2019517378765345,
      -0.4410882059821555,
      -0.006211379816868716,
      -0.3534280607339465,
      2.582609585104441,
      -0.21984311803817946,
      -0.9458002359914357,
      -0.16192732233863244,
      -0.06418108597722527,
      -0.062215406008299036,
      -0.3050443856359146,
      0.31253540576000277,
      -0.2255107372256646,
      -0.38484855642257165,
      0.5766094511627771,
      -0.27879868162488264,
      0.41676004749522705,
      -0.3756621223927209,
      -0.15786690907720072,
      -0.34003841084262465,
      -0.10807835505608591,
      0.3952540455020284,
      -0.1425966641260948,
      -0.09859709233911464,
      -0.292691666890885,
      -0.15442435489398237,
      -0.3926730263230188,
      -0.08950472767260755,
      -0.27831173461952124,
      0.6942956342288463,
      -0.5559878027798089,
      -0.3034508373933143,
      0.8036669640573799,
      -0.27849050118093954
    ],
    [
      1.3220523650828138,
      1.568716268116571,
      -0.35482985144909496,
      1.2084470249236736,
      0.5413477633621214,
      1.042942785421702,
      1.9212114520158123,
      0.6352077009229069,
      -0.40861164059805144,
      -0.0982863413187688,
      -0.39479721837885196,
      -0.23203164163231477,
      -0.8387665093012068,
      0.9305485858334372,
      -0.1791203356952585,
      -0.059682323497111,
      0.18941684326931937,
      -0.09292110374012057,
      -0.2019517378765345,
      -0.4410882059821555,
      -0.006211379816868716,
      -0.3534280607339465,
      -0.3872052538516231,
      -0.21984311803817946,
      1.0573057205380683,
      -0.16192732233863244,
      -0.06418108597722527,
      -0.062215406008299036,
      -0.3050443856359146,
      0.31253540576000277,
      -0.2255107372256646,
      -0.38484855642257165,
      0.5766094511627771,
      -0.27879868162488264,
      0.41676004749522705,
      -0.3756621223927209,
      -0.15786690907720072,
      -0.34003841084262465,
      -0.10807835505608591,
      0.3952540455020284,
      -0.1425966641260948,
      -0.09859709233911464,
      -0.292691666890885,
      -0.15442435489398237,
      -0.3926730263230188,
      -0.08950472767260755,
      -0.27831173461952124,
      0.6942956342288463,
      -0.5559878027798089,
      -0.3034508373933143,
      0.8036669640573799,
      -0.27849050118093954
    ],
    [
      -0.0056010361930342,
      -0.1866300357035601,
      -0.5250472607019219,
      1.297306284978662,
      0.8421143435654075,
      1.042942785421702,
      -0.3104118116854604,
      0.6352077009229069,
      -0.40861164059805144,
      -0.0982863413187688,
      -0.39479721837885196,
      -0.23203164163231477,
      -0.8387665093012068,
      0.9305485858334372,
      -0.1791203356952585,
      -0.059682323497111,
      0.18941684326931937,
      -0.09292110374012057,
      -0.2019517378765345,
      -0.4410882059821555,
      -0.006211379816868716,
      -0.3534280607339465,
      -0.3872052538516231,
      -0.21984311803817946,
      1.0573057205380683,
      -0.16192732233863244,
      -0.06418108597722527,
      -0.062215406008299036,
      -0.3050443856359146,
      0.31253540576000277,
      -0.2255107372256646,
      -0.38484855642257165,
      0.5766094511627771,
      -0.27879868162488264,
      0.41676004749522705,
      -0.3756621223927209,
      -0.15786690907720072,
      -0.34003841084262465,
      -0.10807835505608591,
      0.3952540455020284,
      -0.1425966641260948,
      -0.09859709233911464,
      3.4165646416329265,
      -0.15442435489398237,
      -0.3926730263230188,
      -0.08950472767260755,
      -0.27831173461952124,
      -1.4403086390003004,
      1.7986006077835415,
      -0.3034508373933143,
      -1.244296511768278,
      -0.27849050118093954
    ],
    [
      -0.17385810090918127,
      -0.5034486368808521,
      -0.5496065083942813,
      1.0149313030261435,
      1.3512167988363355,
      -0.34688640018730776,
      -0.7331558826883683,
      0.6352077009229069,
      -0.40861164059805144,
      -0.0982863413187688,
      -0.39479721837885196,
      -0.23203164163231477,
      -0.8387665093012068,
      0.9305485858334372,
      -0.1791203356952585,
      -0.059682323497111,
      0.18941684326931937,
      -0.09292110374012057,
      -0.2019517378765345,
      2.267120241343419,
      -0.006211379816868716,
      -0.3534280607339465,
      -0.3872052538516231,
      -0.21984311803817946,
      -0.9458002359914357,
      -0.16192732233863244,
      -0.06418108597722527,
      -0.062215406008299036,
      -0.3050443856359146,
      0.31253540576000277,
      -0.2255107372256646,
      -0.38484855642257165,
      0.5766094511627771,
      -0.27879868162488264,
      0.41676004749522705,
      -0.3756621223927209,
      -0.15786690907720072,
      -0.34003841084262465,
      -0.10807835505608591,
      0.3952540455020284,
      -0.1425966641260948,
      -0.09859709233911464,
      -0.292691666890885,
      -0.15442435489398237,
      -0.3926730263230188,
      -0.08950472767260755,
      -0.27831173461952124,
      0.6942956342288463,
      -0.5559878027798089,
      -0.3034508373933143,
      0.8036669640573799,
      -0.27849050118093954
    ],
    [
      0.31250997678593134,
      0.4298818368576567,
      -0.4351682327276473,
      -1.321079911308326,
      -1.2309743287626076,
      1.042942785421702,
      -0.06640277864201395,
      0.6352077009229069,
      -0.40861164059805144,
      -0.0982863413187688,
      -0.39479721837885196,
      -0.23203164163231477,
      1.1922269057131527,
      -1.0746349145266378,
      -0.1791203356952585,
      -0.059682323497111,
      0.18941684326931937,
      -0.09292110374012057,
      4.951678111387984,
      -0.4410882059821555,
      -0.006211379816868716,
      -0.3534280607339465,
      -0.3872052538516231,
      -0.21984311803817946,
      -0.9458002359914357,
      -0.16192732233863244,
